729 350
211_02 -0.389979 -0.371163 0.234790 1.390033 -2.189669 0.492237 0.569913 0.155841 1.538207 -0.891096 0.094234 1.712241 -0.102129 0.256383 0.969200 -0.711779 0.482513 0.343371 0.208198 0.288185 0.560387 1.303169 -0.332004 0.127994 -0.149592 0.945239 -0.145468 -0.110413 0.497558 1.571337 0.088852 0.341994 -1.695241 0.489665 0.827941 2.062156 1.100556 -0.930936 -0.356645 -1.099894 -1.414916 -1.372386 0.706143 -0.138289 -0.354865 -0.463249 -1.003443 -0.851935 -0.417044 0.530991 1.050895 0.389520 0.922354 1.089446 0.054687 0.542636 1.128296 -0.773310 -0.232169 -0.769176 -1.211375 0.238028 -2.244408 0.545196 0.625228 1.579277 1.070017 1.183195 -0.409608 0.643227 -2.293325 1.024696 0.465589 -0.884695 -1.953029 -1.385869 0.737273 -0.026536 0.294463 0.296735 0.739157 -1.541944 0.704624 0.571761 -0.363889 0.734266 -0.410352 0.506205 0.675233 0.769619 0.411370 -0.691150 -0.446334 -0.117195 0.035392 0.589989 -0.254469 -0.261652 -0.256215 0.155166 -0.404299 -0.042512 0.172452 -1.528879 1.766186 -1.186109 -1.020734 0.050306 -0.849030 -0.877257 -1.283017 0.670434 1.935774 -0.396054 1.895633 0.599074 1.836617 -1.473992 -0.167866 -0.498374 0.267732 0.348422 -0.192696 1.589811 0.050720 0.695643 -0.192793 0.297880 0.586349 0.802428 -1.951845 -0.188328 -0.379944 -0.721477 -0.179489 0.224256 1.873627 0.252367 -0.998646 0.324865 -1.993605 0.764089 1.286494 0.086730 0.922478 0.699735 -0.528680 2.108220 -0.059464 -1.110747 1.299185 -0.916972 0.292006 0.418219 -0.614405 0.800869 -0.231720 0.774503 0.637976 -0.000191 -0.150890 0.421765 -0.964151 1.027217 0.808661 -0.980800 -2.054800 -0.095837 -0.480047 -1.129785 0.492848 0.148069 -0.776603 -1.322607 -1.277931 1.734196 -1.534117 -0.378562 0.636747 0.106384 -1.513458 -1.451203 1.114752 -0.799031 -1.859698 0.440214 -1.242211 -0.571392 0.466737 0.853970 -0.341301 0.878677 1.140096 2.330520 0.642123 1.612817 0.658498 0.068253 -0.589886 0.950272 -0.391793 2.191785 -0.055746 1.070935 -0.662111 0.299952 -0.335705 0.455831 -0.572788 0.873765 -0.239600 0.627657 2.327785 1.890644 1.178495 0.754456 0.148912 0.986481 0.471263 -1.598294 0.216280 0.221522 -0.772633 -0.586730 -1.949640 1.113454 -2.489984 -1.217139 0.616862 0.486032 2.334666 -0.321720 -0.115864 -2.173284 -1.335368 1.622262 -1.076044 -0.893032 0.335610 -0.772082 0.402389 -0.434502 0.086917 -0.209402 0.195513 1.007535 1.358535 0.004399 1.193939 0.229889 -0.830518 -0.715385 -0.635257 1.290880 1.497726 -0.205101 1.316252 -0.639359 0.588837 -0.799875 0.693177 0.331562 0.158531 1.329858 1.432116 0.943483 -1.308537 1.114290 -1.270644 -1.961672 1.084281 -1.768994 1.094194 0.264414 -0.174540 0.612172 -1.523719 -0.767304 -0.998539 0.000902 1.594999 -0.074000 0.317554 -0.315981 1.561950 -0.874981 -0.128456 1.823125 0.592713 0.902457 -0.001670 0.711688 -0.433378 -0.561059 0.537141 -0.380962 -0.142239 -0.501399 0.211092 0.691004 0.562256 -0.206590 -0.046732 0.072666 -0.926028 -0.625916 -0.501960 0.988294 0.695595 1.101495 0.494032 -1.618369 0.560327 -0.848593 1.750602 0.506998 0.176348 0.481427 1.988280 3.257725 0.779722 0.545890 1.641702 -1.281576 0.702856 -1.458243 0.710273 0.043084 0.174650 -1.384869 -0.881682 -0.432496 -0.059249 -0.152791 -0.753482 0.054650 -0.045787 -2.037948 -1.485752 -0.014269 1.397580 -0.210713 0.726844 -1.115191 0.219275 -1.666895 0.213328 -0.676894 0.094377 1.041982 
116_00 0.554078 0.396482 -2.037403 2.208874 1.097047 -1.175616 -0.495010 0.934209 -2.152554 1.100131 2.267452 1.415894 -0.159402 1.954489 0.131154 -0.646063 0.088237 -0.111903 0.101974 -1.185518 -0.535661 0.664410 -1.855545 1.603843 -0.102651 0.006297 -0.827791 1.173095 0.190890 -0.502974 0.719491 -0.233274 -0.947340 -0.052640 -0.313407 -1.695051 0.413844 0.280359 -0.474661 -0.877038 -0.622269 -1.137834 1.358216 0.701492 1.175656 1.299801 -1.033336 1.136279 1.471162 -0.879953 -1.481600 1.906846 0.421716 -1.174428 0.139021 -0.537732 -0.314375 -0.094070 -0.523922 -0.235668 0.157535 0.048310 0.521002 -0.607903 0.519900 0.778492 -0.273397 -1.015350 0.404644 1.054248 -0.227962 0.316884 0.457359 -0.453436 -1.919329 0.866645 0.544726 -0.112874 -0.591361 0.486627 0.521679 -0.792273 1.670598 1.284239 1.312885 0.123641 1.867030 -0.737082 2.031157 0.683564 -0.783660 0.785430 2.616277 0.895682 -1.923658 -0.573221 1.121351 -1.051285 1.228262 -0.031695 -0.876798 1.560449 -0.562566 -0.523373 -0.638102 0.683728 0.075758 0.391672 1.879852 -0.312191 -1.556558 -2.075433 0.048165 0.566726 -1.107419 1.348062 -0.935252 2.601853 0.476988 1.087363 -0.228649 1.093841 0.296615 0.645747 -0.815920 0.581541 -1.496109 0.911886 -0.017445 -0.248112 -0.659453 0.375606 2.537705 1.672585 1.276435 0.798488 1.168519 3.726093 0.483266 -0.620982 0.365123 -1.253060 -0.272684 -0.795626 1.347624 0.232480 0.629531 -0.133332 -0.381512 -0.331193 -1.681051 -0.877964 -0.865697 -0.092862 -0.680469 0.895957 0.407112 -2.302327 0.315553 0.111423 -0.069975 0.242758 -1.187685 -0.973019 1.050233 0.521142 0.736403 -1.001474 -0.346307 0.428435 1.870962 -1.846116 -1.605210 -0.139295 0.693266 0.898374 1.307807 -0.417408 0.500338 -1.232092 0.086891 0.240703 0.051200 0.529870 -0.100830 -0.276568 -1.218025 -0.134656 0.194696 -0.059629 1.489975 0.495493 -0.517115 1.122894 1.578219 -0.331323 -0.267179 -0.763883 1.934089 0.397352 0.372920 -0.563552 1.127487 0.637864 0.187432 1.629951 -0.443635 0.284709 0.229596 0.738251 -0.549201 0.617623 0.450481 -0.567585 1.395137 -0.332190 -0.463194 1.676343 -0.102482 -1.491008 0.904441 0.411992 -1.345621 -0.252434 0.322837 1.026586 2.103397 0.123363 -1.041051 0.660555 -0.684903 -0.364024 -0.763553 1.069651 0.065668 0.229172 0.975881 0.808788 -1.843866 1.816613 1.040554 -0.390907 0.050531 -0.966871 0.725918 0.724319 0.716919 -1.980972 0.031715 -0.053227 -0.144749 -0.437676 0.719665 1.915583 0.713670 -0.820819 0.747309 -2.761366 -0.438059 0.532112 -0.197663 0.598830 0.305094 -1.426633 -1.233730 -0.487450 -1.238565 2.253361 -0.753771 0.229211 -2.179734 -0.820535 0.821809 0.371290 -0.740758 0.205605 -1.532926 0.089784 -1.735177 0.255501 1.230905 -1.202483 1.139845 -1.555056 -1.581049 -1.279677 1.380811 0.587216 -0.333771 1.121918 -0.391824 -0.810702 0.096910 -0.192068 1.045977 -1.529978 -1.070107 -0.785013 -1.973702 -0.037799 -1.340364 -0.489573 0.946763 0.120504 1.573077 -0.263514 -1.558020 0.138322 0.092016 -0.123255 0.733891 1.088715 -0.420580 0.211632 0.134563 2.267512 -0.067808 -0.177158 1.464654 0.797129 1.515661 0.616327 1.330279 -0.855289 -0.408167 -0.687478 2.020436 0.601979 -0.920877 0.231297 1.296847 -0.458358 1.351975 -0.587388 -0.037772 0.013573 1.349788 -3.721174 -0.740738 -0.668311 0.626853 2.434195 -0.226249 0.680183 -0.524855 1.057668 -0.956825 1.372351 0.518707 0.399894 
185_00 1.097342 -0.344048 -1.386905 1.724061 1.880095 -0.816532 -0.688414 0.847317 -1.324937 0.528609 1.415037 1.189826 -0.075190 0.782010 -0.339810 -0.353464 1.158413 0.102237 -0.219049 -1.048866 0.461168 -0.297105 -0.398190 1.352111 0.041382 0.997977 -0.668819 0.880682 0.449392 -1.374610 0.610248 -0.672496 -1.150472 0.605122 -0.145000 -1.409771 -0.135035 0.712351 -0.490868 -0.012468 0.496772 -1.147370 1.465580 1.259565 0.679225 0.205235 -0.868463 0.488155 0.678778 0.530239 -0.885058 1.131522 -0.111355 0.196948 -0.765762 -1.115831 -0.266565 -0.931295 -1.114493 -0.052532 0.377963 -0.585535 0.817412 0.250725 0.713873 0.288502 0.199690 -1.160007 -0.208019 1.357455 -0.563291 0.048282 1.174580 -0.399046 -1.504152 1.086371 -0.073453 0.381608 -1.092033 0.099084 -0.784705 0.258962 1.368633 -0.391283 1.332463 0.521154 1.978428 -0.931876 0.292162 -0.044390 0.295415 1.023366 1.353253 0.859349 -1.072661 0.329189 0.749648 -0.271631 0.363220 -0.170070 -0.714063 2.121205 0.062031 -0.425847 0.014917 0.969724 -0.270483 -0.268035 1.699863 0.531770 -0.293352 -1.394894 -0.408027 0.259786 -0.163817 0.650039 -0.780012 1.365091 0.958507 0.442642 0.666362 0.628327 0.231414 0.690605 -0.387044 -0.263179 -0.956899 1.144284 -0.198064 -0.575520 -0.286123 0.072711 1.647350 1.011255 0.967409 0.078937 0.055631 2.528751 0.501929 -1.425986 -0.324100 -1.306525 -0.715575 0.536996 1.034170 -0.751837 0.508973 -0.343854 -0.558513 -0.647700 -1.760635 -0.415038 -0.679514 -0.858769 -0.445591 1.398427 0.456475 -0.978919 -0.204835 -0.264236 0.537040 -0.283119 -0.865883 -0.021059 0.528594 -0.533547 1.407606 -0.636747 -0.290047 0.726568 1.810966 -1.863913 -0.908512 0.168484 0.346223 0.547567 -0.032766 -0.871126 1.574596 -1.891375 0.006874 -0.509023 1.362477 0.598382 0.147496 -0.376804 -0.405279 0.718120 -0.696497 0.131141 -0.462688 0.596689 -0.752159 0.474677 1.300770 -1.867520 0.028988 0.086653 1.281269 0.567632 0.290247 -0.963199 1.322057 0.068574 0.598135 1.648897 -0.085482 0.313070 0.446311 -0.325125 0.122248 -0.454530 -0.240978 0.224030 0.604280 -0.592909 0.466182 1.268061 0.098964 -0.666203 0.423318 -0.248981 -1.227847 -0.853850 0.415602 0.040170 2.266445 -0.101423 -0.736236 0.551459 -0.525885 -1.036067 -1.283580 0.713376 0.203139 -0.528434 1.058246 0.601156 -1.018837 0.883386 0.913248 0.373146 -0.362564 -1.073512 0.703048 0.035167 1.323491 -1.304118 -0.105972 -0.238410 -0.618516 -0.376465 0.994573 1.283743 -0.081861 -1.219468 0.237006 -1.004522 -0.382401 0.610637 -0.715209 1.136299 0.153302 -1.338951 -0.593907 -0.775800 -1.079225 1.134738 -0.004796 0.575737 -0.985775 -0.578068 0.376176 -0.188855 0.452271 0.365974 -1.347197 -0.365301 -0.335067 -0.529916 1.504609 -1.336793 1.738672 0.191637 -1.601031 -0.212646 0.610256 -1.295139 0.246025 0.206008 0.823663 -0.992938 1.306429 -0.518306 -0.316134 -0.302727 -1.454482 -0.282129 -0.898798 -0.313674 -0.638027 0.146711 0.602585 0.692507 0.892920 0.324882 -1.442775 -0.328469 0.035071 -1.012860 0.966713 -0.148925 -0.396308 0.868190 0.059763 1.385566 0.288944 1.063218 -0.198205 -0.108140 1.314554 1.037048 1.060318 0.201538 -0.492545 -0.765210 1.492632 0.597787 -0.993624 0.664647 1.897477 -0.242627 0.799708 -0.031272 0.418381 -0.750675 1.899165 -1.771861 -0.689534 -0.636179 0.629429 1.933980 -0.732097 -0.341005 -1.745253 2.203768 -0.856723 0.846447 0.868030 -0.047795 
204_02 -0.769659 0.126917 -0.340141 0.640723 0.727775 -1.437420 -0.223829 1.165326 -1.285235 -0.931333 -0.159231 -0.397218 1.759983 1.521606 -0.312119 -0.568285 1.407552 0.508476 -0.781046 -0.614725 1.386779 -0.214091 0.273447 -0.111226 -0.220625 1.914712 -2.221244 0.383870 -0.566451 -0.149009 0.232550 -0.038503 0.138896 -0.804638 0.954298 0.846804 -0.135218 -1.418547 0.853364 1.546167 -1.390297 -0.488300 -0.172203 -0.784469 -0.164414 -0.602170 0.492713 -0.092724 2.197531 -0.770481 -1.040759 0.503472 -0.365073 -0.233582 -1.103027 2.148618 0.522229 -2.019462 0.741145 1.363827 1.283274 -1.797969 0.764236 -1.156952 0.756613 0.694991 -1.163626 -0.109185 0.603725 1.830288 -0.562387 -0.549964 0.048461 0.798138 2.629136 -0.087734 0.408277 -1.362774 0.630046 -0.192303 -1.421149 2.245877 -0.028157 -1.587341 -1.101004 0.042932 -0.242344 0.246707 -0.639128 0.184228 1.707211 -0.856582 0.592041 0.186883 0.883689 -0.435563 0.243749 -0.313915 -0.178412 0.059195 -1.075949 -1.490340 0.990293 -1.065650 0.091941 0.574480 -0.094448 -0.888931 -0.863606 0.898107 1.767657 -0.690305 -0.781716 -0.552055 0.190495 1.854817 -0.029575 -1.282794 0.909776 -0.685780 -0.949307 0.393776 0.711640 0.139227 0.145596 -0.989395 1.052609 -0.069853 0.585449 0.464786 -0.246118 1.125515 0.037272 0.607926 -0.981263 -0.934653 0.527667 -1.575601 1.458107 -1.677369 -0.425497 0.655796 -1.728555 0.848664 -0.747005 1.018134 0.904449 0.808401 0.096363 -1.068730 -0.610120 0.119908 0.200761 2.031767 1.577567 0.008430 -0.275420 1.845383 0.906300 -0.955525 1.430060 0.201693 0.500257 -1.792370 -0.266584 0.269929 -1.559233 -0.337766 0.564244 -0.068211 0.610472 -0.742900 0.375034 0.140631 -0.607399 1.785774 -0.620841 0.829568 -0.117750 -0.476937 0.480455 -0.842718 -0.577026 -0.612783 1.368500 0.256628 -1.448267 -0.823910 -0.681984 0.217219 -1.334594 0.373176 -0.387863 0.117911 -0.194066 -0.470054 2.252913 0.968043 1.658191 0.904991 1.102761 -1.609221 0.259679 -0.752186 -0.775167 0.588641 0.562068 0.523946 -1.251359 0.149723 -0.663467 1.505172 1.110434 -1.312525 -1.844134 -0.646309 0.347746 -0.109436 0.323356 1.697525 -0.692635 0.082841 0.285887 -0.501400 -1.118247 -0.230720 -1.260350 0.548408 0.743443 -0.873187 -0.499077 0.367656 0.133520 0.555146 1.366935 0.552943 -0.985576 -1.585788 -0.491940 -0.666029 0.859922 1.566476 -0.391433 0.462987 -0.959958 0.516103 0.990397 -1.456072 0.105604 1.166042 -0.641170 -0.019251 0.796794 -0.377052 0.544664 -0.084462 -0.095638 0.749638 -0.291340 0.275220 -0.698396 -0.483206 -1.126146 -1.206051 0.328684 0.725788 0.354908 0.409309 -1.230385 1.193600 -0.498371 -1.064242 -1.003408 -2.089481 -0.014992 1.631570 -0.268655 1.623184 -0.167322 -0.776969 0.708233 -2.247133 0.288167 -1.608522 0.612939 0.353714 0.989692 -1.740760 0.211883 0.585406 0.147166 -1.017316 -0.585894 1.331776 -0.880622 0.436812 -0.769696 -1.259438 0.243996 -0.814611 0.088858 0.443833 -0.761439 0.868821 0.987635 1.181368 -0.947907 -0.923470 0.625955 0.249974 0.341580 -0.474757 -0.149270 -0.550054 -1.224585 0.707478 0.344060 0.405092 -2.077316 -1.270357 1.749650 -0.673202 0.660549 1.136741 0.994850 2.353422 0.706594 1.627180 -1.109527 0.574373 -0.117154 -1.537121 -0.854423 -0.290987 1.575150 -0.825677 -0.836257 1.234209 0.821458 -1.629134 0.839608 0.073929 0.290256 -0.228779 -1.311898 0.383701 0.468854 1.457858 -0.520906 0.945122 
116_02 -0.323255 0.234732 -0.670475 2.151775 1.142746 -1.051022 -0.870217 2.043518 -1.228535 0.288689 1.131766 1.718399 -1.599022 0.700529 1.038683 -0.265753 1.403424 0.253522 0.868208 -0.202508 -0.415061 1.450759 -0.579806 0.920614 0.623334 -0.010305 -0.138041 -0.561627 0.176582 -0.651081 0.652729 0.540297 0.011969 0.277463 -0.539933 -0.676642 0.308373 0.730850 -0.832129 -1.428262 -0.073330 -1.477564 1.543104 -0.499689 1.688465 0.942869 0.196081 0.328689 0.565445 0.058089 -1.142086 -0.379183 0.296161 -1.475979 -0.483938 -1.100370 -0.701120 -0.341553 1.601865 -0.837373 -0.330090 -0.094164 -0.412624 -0.007944 1.887658 -0.308495 0.826640 0.231796 -0.179679 0.259436 -1.549196 -0.422153 -0.496763 0.047217 -1.170091 0.649157 -0.383934 0.876798 -0.570790 -0.127588 -0.887572 -0.361411 -1.093639 1.985100 0.957494 0.006503 1.293606 -0.713158 0.017608 0.242845 0.760465 -0.178159 0.322608 0.764087 -0.407055 -1.696588 0.780986 0.721647 1.580204 -0.946494 -0.537135 1.435236 -1.561759 0.107103 -0.120163 0.495735 -2.483981 -0.171096 1.915986 0.101952 -0.748803 -0.280988 0.252548 -1.356391 -1.919654 0.425970 -0.209979 0.081641 0.551410 1.127018 0.331614 0.134967 -0.137718 0.374372 -0.936622 0.021855 0.691303 0.795659 -1.588723 0.028627 -0.359906 -0.470241 -0.149490 0.873638 -0.162666 0.736611 -0.428250 2.858527 -0.030358 -1.429955 0.792075 -1.282189 1.375498 -0.080092 1.532736 0.394727 0.948635 -0.770320 -0.692536 0.628963 -0.658758 -1.593427 -0.135629 0.588586 -1.446300 1.449512 -0.797625 -1.705292 0.157883 1.088703 0.083214 1.865880 0.535632 -0.382843 0.345394 0.972811 -0.858321 -0.836939 0.240493 -0.684921 2.437089 -0.767274 0.385762 -0.597461 0.726065 1.436161 1.301982 0.032535 -0.401715 0.725877 -0.252342 0.207502 0.426669 2.301654 0.386837 0.061518 0.661165 -0.896006 -0.719715 -0.214846 0.728498 0.964378 -0.681483 1.232734 0.943718 0.760675 0.519393 -0.099027 1.530749 0.648344 0.505823 -0.286949 0.258790 -1.051824 0.987618 -0.297732 0.487754 0.058716 -0.858727 -0.097145 0.439931 0.282778 0.599378 1.162613 1.256028 0.828115 -0.753937 -0.004894 -0.590116 -0.885511 -0.415328 0.416802 0.134043 0.292810 -0.773820 0.271501 0.838977 -0.087160 -1.609421 -0.846185 -0.351852 -1.102209 0.458033 0.593409 -0.136119 -0.336314 -0.253280 0.429923 -2.485426 0.719719 1.038189 0.950995 -0.959169 0.474914 1.148228 1.071644 0.781954 -2.469409 -0.776480 0.213520 -0.352540 0.513873 0.112708 0.652049 0.999374 -1.254377 -0.242916 0.137598 -0.845890 -0.009499 -0.067694 0.326693 -0.822508 -0.536039 -1.237747 -1.162834 -0.173673 0.762716 0.656433 0.560068 -0.472099 0.243439 -0.595204 -0.345108 -0.139315 -0.588550 0.096273 1.865831 -0.676549 1.868647 1.207876 -0.638022 1.243914 -0.892510 -1.341179 0.049017 -0.420955 0.942888 -0.562248 1.153876 -1.263024 -1.289881 -0.736960 -0.764617 0.718338 0.034903 -1.499268 0.334562 -1.113381 1.475447 -0.210029 -1.130772 1.069920 0.777178 2.063241 -0.577986 0.100569 -1.553738 -0.296058 -0.865580 -0.218313 0.092856 -0.417776 -0.745904 1.000200 1.527476 -1.824087 -1.328024 0.824652 1.375634 1.265553 -0.100954 1.899488 -1.327958 0.515308 -0.177392 0.622070 0.321719 0.401430 0.091617 0.133506 -0.367605 0.874812 -0.935526 -0.042630 -0.365809 0.818563 -1.650996 -0.402092 -1.012025 0.353611 0.652572 -0.256929 0.193532 -0.343220 -0.390187 0.048616 0.762537 0.685531 0.022176 
114_02 0.027572 0.861208 -1.287983 1.167258 0.376373 -1.402054 -1.004458 1.712452 -1.448157 0.397280 0.914240 2.426484 0.093903 0.612967 0.484733 -0.658664 1.616662 -0.587628 2.133756 0.781624 0.778579 1.526517 -2.107738 0.057381 0.085503 0.224007 -0.853816 -0.476913 1.011792 -0.685283 0.125769 0.746118 -0.155299 0.347604 -0.474188 -0.255581 0.388125 -0.253680 -0.916397 -1.305059 -0.262131 -1.438382 1.326473 0.040807 1.496108 1.491756 0.564560 0.031220 1.108606 -0.421467 -0.915756 -0.175483 0.053007 -1.859130 -0.435101 -0.369190 -0.784881 0.342312 0.682164 -0.669452 -0.136396 0.627578 -0.554730 -0.475693 1.507585 -0.300221 0.786437 0.353208 -0.050666 -0.020823 -0.946762 -0.320478 0.835077 -0.097044 -0.910717 0.718619 0.555976 0.617327 -0.593108 -0.867026 -0.801226 -0.626449 -0.445967 1.947747 1.301205 -0.347745 0.824793 -0.820851 1.110534 -0.105867 0.349188 -0.066109 1.431059 0.837116 -0.199497 -1.465618 0.906709 0.771948 0.841322 0.251055 -0.359316 1.845735 -1.246680 -0.242926 0.177388 0.585533 -1.236934 0.229709 0.720710 0.349090 -1.623479 -1.062157 -0.053418 -0.882399 -1.662896 1.393661 -0.336735 -0.152029 -0.091504 0.389262 -0.764867 0.368660 0.159751 -0.034472 -1.426830 -0.171138 0.518653 -0.030181 -1.400004 -0.430243 0.212735 -0.176892 0.143053 0.265006 0.891523 0.204999 0.218486 2.368724 -0.662256 -1.986381 0.801234 -0.310174 0.911487 -0.167869 1.653633 -0.640501 0.576525 -0.162645 -0.589912 1.442748 0.645678 -0.738924 0.120459 0.117509 -2.008407 0.973752 0.149895 -1.457678 -0.046197 0.866221 -0.891209 1.634565 -0.200369 -0.394213 -0.194638 1.199976 -0.348266 -0.928941 0.355920 -1.261417 1.283682 -0.212647 -0.377949 -0.699508 0.581531 0.784770 1.290619 1.092290 -0.651420 0.785200 -0.101495 -0.032606 -0.270460 1.557928 1.038230 -0.353800 0.472021 -1.287490 -0.682709 -1.020301 0.518013 0.540843 -0.509849 1.305873 1.433798 0.333660 1.383473 0.142517 1.006817 0.882975 0.000973 0.856096 -0.678743 -0.494621 0.972752 -0.450044 0.551325 0.285195 -0.650084 1.478546 0.551062 -0.067327 0.840620 0.469775 1.286136 0.039205 -1.074850 1.247605 -0.902692 -1.850950 -0.228726 -0.044681 -0.005964 0.777062 -1.358921 0.742770 0.010708 -0.657815 -1.245750 -0.725504 0.395094 -0.760886 0.002526 0.643002 -0.377444 -0.243661 -0.951246 0.641552 -1.038540 0.538552 0.610983 0.533012 -1.147040 0.301808 1.092649 1.326763 0.953915 -2.145565 0.506479 0.080425 -0.594208 0.834240 0.227483 0.290726 1.234632 -1.078968 0.002814 -0.745807 -0.360355 0.271696 -0.018189 0.420158 -0.520535 -0.729922 -1.548725 -0.801044 -0.888623 1.163738 0.143058 0.621187 0.135590 0.794011 0.000329 -0.712833 0.541339 -0.602071 -0.773004 1.439019 -0.817188 2.221197 1.315057 -0.527768 0.556182 -0.736233 0.126660 -0.239075 -0.202371 2.079755 0.561443 0.991270 -1.961680 -0.478552 -0.843070 -0.779549 0.600666 -0.383574 -0.793848 -0.217972 -0.500332 2.018465 -0.604667 0.044087 -0.062150 0.403271 1.255817 0.074196 -0.110278 -1.573181 -0.047306 0.376073 0.180391 0.774074 0.469009 -1.843906 1.023706 1.772384 -1.301554 -1.192982 1.254540 1.908376 0.988067 -0.268223 1.279416 -1.956854 0.101755 -1.661411 0.788195 0.526560 1.198478 0.881578 0.502173 -0.211953 0.547875 -1.046102 0.216129 0.574452 1.374572 -1.237897 -1.389952 -0.382661 0.613500 1.796395 -0.275798 -0.044067 -0.261441 -0.837799 0.952618 0.861086 -0.118937 1.085306 
32_02 0.304295 0.137432 -1.186715 2.126168 1.704800 -1.435013 -1.680990 2.234083 -1.284450 0.601018 0.706001 2.035089 -1.843681 1.106403 0.292646 -0.434469 1.330694 -0.340331 2.218915 0.224132 1.275349 1.446658 -1.036509 0.363819 0.184890 -0.744224 -1.060679 -0.341019 1.363626 -1.024503 -0.105005 0.875671 -0.134629 0.111626 -0.853827 -0.130664 0.988210 0.159880 -0.938528 -1.226841 0.167001 -1.212898 1.080232 -1.148183 1.027023 0.877397 0.324587 -0.058319 0.251336 -0.502602 -0.774177 -0.181762 0.195324 -1.453981 -0.209349 -0.262863 -0.547564 0.656570 1.897757 -0.809785 0.288485 0.097473 -1.587719 -0.582744 1.563262 0.853163 0.415534 0.348047 0.103355 0.104535 -0.868515 -1.038323 0.503984 0.034328 -0.869135 1.101542 0.072603 -0.068718 -0.973341 0.080377 -1.209801 -0.724148 -0.801794 1.632185 0.828493 -0.516493 0.921667 -0.878213 1.163656 0.230999 0.184441 -0.438027 0.877223 0.649429 -0.216572 -1.708981 0.752268 0.818498 1.083638 0.168510 0.166405 1.561701 -0.849978 -0.366547 -0.276506 -0.036710 -2.327575 -0.371292 1.221297 0.822119 -0.892063 -1.157886 -0.476084 -0.718131 -1.416940 1.079735 -0.495894 -0.187141 -0.892482 0.837493 -0.301878 0.531081 -0.251894 0.265038 -0.467137 -0.187252 0.728770 0.057420 -1.190748 -0.342695 -0.058512 0.172577 0.631080 0.064509 0.598566 0.623705 0.404517 2.540980 -0.094799 -2.123710 0.716560 -0.749181 1.640149 0.282599 1.952854 -0.527284 0.332097 -1.193841 0.067173 0.496433 0.809761 -0.462898 -0.658089 -0.009263 -2.193655 0.573824 -0.775751 -1.499180 0.130247 1.057608 -0.050119 1.520956 1.116097 -0.399985 0.636482 0.697134 -0.808967 -1.447182 1.241527 -0.769369 1.572556 -0.418919 -0.148993 -0.538235 0.136217 0.068464 1.517747 0.184549 -0.044535 0.741314 -0.422340 -0.575921 0.411130 2.207082 0.828750 -0.277406 0.932629 -1.181301 -0.658556 -0.760241 0.980150 0.756370 -0.707229 0.554566 1.785655 0.456276 0.369691 0.028979 1.125573 0.893554 0.201652 0.716822 -0.725346 -0.639003 0.884715 0.095289 0.027733 0.012590 -0.969098 0.245292 0.769587 0.457070 -0.070272 0.011961 1.319651 -0.096496 -1.473289 0.513082 -0.455400 -1.299402 0.091567 0.628027 0.104388 -0.168307 -1.241328 0.387523 -0.294639 0.386540 -1.501562 -1.252677 -0.004175 -0.885422 0.014297 0.524356 -0.719400 -0.640778 0.007241 0.594686 -1.309949 0.462720 0.280526 0.610547 -1.142834 0.538608 1.552075 0.677240 0.922294 -2.111253 -0.507294 -0.658275 -0.027053 0.767867 0.420483 0.233272 0.465937 -0.365684 0.265956 -0.613629 -0.176232 0.034112 -0.152255 0.203727 0.106634 -0.716828 -1.745330 -0.598369 -0.525845 1.199882 0.450198 0.237514 -0.761928 -0.113184 -0.360516 -0.320886 1.369154 -0.118633 -0.433347 1.425433 -0.528261 1.871727 0.941966 -0.551754 0.205322 -0.852854 -0.244464 0.761682 0.226081 1.866330 0.077875 0.555458 -1.375011 0.025614 -0.780620 -0.530753 1.078389 -0.677150 -1.064570 -0.005602 -1.161257 1.031178 -0.841903 0.302885 0.015863 0.480688 1.993247 -0.590549 0.059468 -1.560930 0.313386 -0.582593 0.058214 0.841964 0.502897 -1.300953 0.886382 1.443783 -1.549309 -0.730331 0.994557 1.616592 1.407715 -0.060647 1.143284 -1.410152 -0.392808 -0.935580 1.232946 -0.397655 0.862301 0.095920 -0.005716 0.509058 -0.094722 -0.500343 0.289330 0.949974 0.838235 -1.920295 -1.230142 0.486640 0.843841 1.591986 -0.083393 0.528351 -0.073627 -0.203273 0.165958 0.888489 0.121822 1.305696 
185_02 -0.539474 1.269436 -0.991147 1.526003 1.685276 -2.922163 -2.527513 1.030567 -1.355970 0.246312 2.209651 1.298876 -1.608631 0.231914 0.897763 0.160302 -0.301515 -0.366173 1.409192 -1.072181 -0.620301 0.412353 -0.337650 0.174024 1.659538 0.916133 -0.545388 -2.155335 0.523249 -1.761785 1.459202 -0.192031 -1.480455 0.632130 0.331360 -2.189405 -1.036580 0.642142 -0.405463 0.117157 0.843448 -0.108830 1.878523 -1.357162 1.505659 -0.295978 -0.704196 0.597301 1.255715 -0.062501 -1.397759 -0.043033 -0.360905 -0.628523 -0.806803 -0.874167 -0.471994 1.019468 1.047712 -1.488043 0.919175 0.906546 -1.190552 -0.205283 -0.192907 -1.014248 0.815970 -0.342804 0.588536 0.482333 -2.048939 -1.081355 -0.109118 1.314366 -0.065358 1.946669 0.230390 2.327425 -0.021659 0.216588 -2.346525 -0.995680 -0.150840 -0.611121 0.317302 0.006180 2.121287 -1.830844 0.698826 -0.328217 -0.250206 0.156456 0.530120 0.695695 -0.139480 -0.357872 0.625242 1.328984 1.738555 -2.184406 0.811762 1.806900 -0.772471 0.588574 -1.170610 1.124979 -2.914141 0.802384 0.990191 -0.019658 0.257710 -0.858646 -0.285944 -0.370507 -0.738562 0.871383 -0.099766 0.323541 1.107704 1.559639 0.772281 -0.192472 -0.210844 0.639272 0.597403 -0.244531 0.356215 0.008135 -0.641197 -0.904378 0.379315 0.187172 1.023626 0.124900 1.586128 0.565877 -0.911955 3.532361 0.276060 -0.022163 0.038641 -0.737592 0.694017 -1.050001 1.938109 -1.559729 0.349986 0.292723 -0.293817 1.808813 -1.688413 -1.350254 -1.000929 0.926764 -1.043283 0.213074 -0.948891 -1.122854 -0.375915 1.532089 0.358919 0.800277 -0.707852 -0.349085 -0.465531 0.387730 0.002648 -1.624866 1.428662 -1.485349 2.546535 -1.857414 0.191558 -1.378016 1.397225 1.069289 1.095299 -0.914872 0.085900 -0.409855 -0.733369 0.393631 0.572016 0.898125 -0.795615 0.603643 1.154487 -0.568648 -1.030597 -0.930019 0.479159 0.330035 0.339927 0.922586 0.247422 -1.294727 1.215502 -0.273289 2.099157 2.900645 -0.202010 0.434914 -0.315271 -0.933973 0.538811 0.370845 0.009036 0.047814 0.215085 0.923031 1.098751 0.277123 -0.216593 0.623927 0.301438 -0.851597 -0.844815 -1.473354 0.371308 -0.530000 -0.830391 -0.097249 0.457638 -0.439850 0.550744 -0.055809 1.463227 1.265274 -1.403511 -0.420091 -0.008683 -1.907233 0.206933 -0.239374 -1.103428 -1.656606 1.141473 1.148407 -0.922078 -0.334764 0.331689 1.760404 -1.853417 -0.041609 1.202789 0.510912 1.065483 -3.249901 -0.634012 1.122316 0.836222 -1.091470 1.206748 0.240967 0.947315 -1.022914 -0.261127 -0.836332 -0.108381 0.882789 -1.935292 1.682899 -0.187024 -1.171680 -0.914120 -0.403441 -0.734106 0.785618 0.981284 0.325077 -0.528750 0.682024 -1.243360 0.614994 0.919681 -1.497021 -0.969765 0.165757 -0.562512 1.122458 -0.627126 -2.453975 2.153396 -0.917408 -1.117199 0.989935 0.304108 -1.362895 0.310333 1.483188 0.438624 -1.468095 0.386313 -0.014860 1.797450 -0.164669 -1.113852 -1.185089 -1.136120 0.736723 -0.779642 -0.019009 0.124849 0.463035 2.297424 0.796641 -0.002879 -1.959387 -0.340113 0.079802 -0.215519 1.094536 0.595976 -0.594372 0.619439 1.988173 -0.808374 -0.105101 -0.415623 -0.141177 1.622962 0.295732 0.389770 -1.118697 -0.006818 -0.605858 1.020403 -0.051105 1.155957 0.721720 2.067888 -0.410045 -1.017512 0.457036 -0.115409 -0.429555 2.047367 -1.851622 -1.321405 -0.419629 0.861846 1.341711 0.344205 1.042253 -1.609873 1.555672 0.673885 0.044553 2.589226 0.792411 
115_02 -0.598709 0.437452 -0.465593 2.734828 1.498108 -1.954003 -2.096968 1.128580 -2.088895 0.317739 1.534421 0.649080 -1.409528 1.205695 0.938462 -1.299965 1.011230 0.124109 1.057989 -1.231170 -0.107008 1.396778 -1.644882 1.487771 0.740806 0.871909 -0.139277 -0.929665 0.087858 -1.177560 0.606637 0.079162 -0.191258 0.688703 0.104635 -0.913700 -0.334029 0.638225 -0.468489 -1.968524 0.457401 -1.059449 2.198426 -0.625648 1.179423 0.321009 -1.160599 -0.508178 0.619745 -1.078265 -1.871696 -0.316270 0.195589 -1.546690 -0.846931 -1.187180 -0.278659 1.712174 1.993466 -1.581708 0.536248 0.870662 -0.272417 -0.242126 0.635448 -1.403065 0.388292 0.023689 0.760143 1.032866 -1.399397 -1.143915 0.260086 0.324809 -0.412256 1.704201 0.750589 1.270448 -0.138031 -0.317800 -1.451744 -0.444174 0.244872 0.539100 0.827906 -0.136797 1.386559 -1.496985 1.314476 0.434209 0.426843 0.005194 1.214055 0.982163 -0.532269 -0.133787 0.441009 0.407313 0.501895 -0.222458 -0.112603 1.597464 -1.297920 0.572062 -0.432191 1.613268 -1.878990 0.275650 1.927681 -0.294868 0.443759 -1.038999 -0.296432 -0.187592 -2.286650 0.419824 -0.045199 -0.394535 -0.279166 0.986891 -0.474830 1.164826 0.032750 0.082775 -0.442669 -0.277425 0.347594 -0.809169 -1.360179 -0.485113 0.932698 -0.152925 -0.205119 0.909574 1.020179 1.565376 -1.165229 2.430408 -0.164029 -0.946057 0.769256 -0.970623 0.754852 0.359079 1.584028 -1.380484 -0.030759 -0.442706 0.236761 0.965442 -1.382277 -0.856649 -0.704413 -0.043099 -0.374320 0.848413 -0.684669 -1.845642 -0.584233 1.973010 -0.315535 0.826988 0.372866 -0.590039 -0.165215 0.955387 -0.365466 -2.208769 0.126975 -0.562752 2.878917 -1.758765 0.465771 -1.518271 1.078615 0.246625 0.811605 -0.754436 -0.662458 -0.284657 -0.305793 0.001947 0.945434 0.927896 -0.665073 -0.346775 0.735470 -1.357944 -0.543822 -1.521788 -0.456657 1.189093 -0.641888 0.982930 2.169833 0.147499 0.966298 -0.740777 1.234765 1.952706 0.265916 0.185644 -0.382406 -0.488916 0.547337 0.564707 -0.069383 0.724007 -0.150161 -0.222772 0.483132 1.028317 -0.517111 1.022371 0.866951 -0.799809 -0.312468 -0.012747 -2.020428 -1.948084 -1.129471 0.444998 -0.065876 0.422968 0.543754 0.586809 0.982088 0.753135 -1.255030 -0.187010 -1.068506 -1.755136 -0.392832 1.222441 -0.520331 -1.195095 0.245022 0.955392 -0.433910 0.113133 0.913022 -0.272952 -1.833757 0.598363 1.078357 1.430318 0.592500 -2.349079 -0.261362 0.018404 -0.338164 0.383843 0.692197 0.097327 0.896075 -1.494295 -0.450260 -0.705464 -0.887900 1.029243 -1.498533 0.680310 -0.507681 -0.151847 -0.992950 -0.697499 -0.422257 1.082895 1.068658 -0.710540 -1.176984 1.194230 -0.167080 -0.333852 0.691727 -0.222004 -0.616427 1.031673 -0.783060 1.681825 1.027602 -0.879381 1.818201 -1.308639 -0.686174 0.768926 0.027586 0.231987 -0.373353 1.546762 -0.836616 -1.525221 0.453902 0.529483 2.516798 -0.593175 -2.399822 -0.148778 -1.498371 1.242014 -0.298353 -0.778394 1.467496 0.623508 1.836780 -0.194159 -0.092001 -2.840163 0.400910 -0.690939 0.198024 1.516793 0.083647 -0.648619 1.027983 2.475258 -1.472847 -0.148213 -0.633883 -0.321495 1.469461 -0.674498 1.999815 -1.565939 0.697747 -0.647054 1.284375 0.067513 1.152394 0.515571 1.108016 -0.332136 0.457806 0.001172 -0.572322 1.474381 0.247802 -1.908593 -0.097844 -0.343019 0.783341 1.540052 -0.497005 0.753120 -0.964899 0.533009 0.554436 0.528292 0.842437 0.456900 
32_00 0.829540 0.441928 -0.534776 1.703529 0.449819 -0.302455 0.128023 1.691044 -1.602168 0.206520 1.295792 1.786641 0.236179 0.662469 -0.218209 -1.548911 1.073509 -0.201328 0.059020 -0.835005 0.001797 0.353479 -1.822184 1.223741 -0.563061 0.167719 -1.149563 0.456896 0.281088 -0.678941 0.119597 -0.103167 -0.265877 -0.400674 -0.312756 -1.023377 0.034869 0.000434 -0.577122 -1.019288 -0.265294 -1.293464 1.248618 0.593798 0.834300 1.159813 -0.994702 -0.372339 1.343874 -0.333545 -0.432139 1.346493 -0.247457 -0.787390 -0.289498 -0.800113 -0.243931 0.032567 -0.395300 0.548153 -0.408982 -0.597682 0.010329 -0.434897 0.637961 0.288598 -0.538231 -0.028971 -0.111224 0.716543 -0.190488 -0.059573 0.516769 -0.643942 -1.717107 0.556454 0.333708 -0.656460 -0.867557 0.007243 0.389559 -0.310381 0.916014 1.468793 1.283028 -0.188719 0.869718 -0.116749 1.186230 0.404421 -0.585286 0.371956 1.860020 0.575791 -1.448385 -0.080281 0.912761 -0.575973 -0.444069 0.284127 -1.141649 1.801364 -0.302119 0.099863 -0.663657 0.462377 -0.212232 -0.055391 0.761621 0.365819 -0.826839 -1.907346 -0.109094 0.521146 -1.294706 1.573807 -0.547389 2.101986 -0.041675 0.219999 -0.057969 1.630641 0.497750 0.204828 -1.095043 0.329386 -0.474286 0.327141 -0.081853 0.173395 -0.477420 -0.150994 1.382672 1.547865 1.081234 0.386975 0.837845 2.922070 0.508839 -1.013473 0.436710 -0.561619 -0.477453 -0.056037 1.027194 -0.188019 0.773182 -0.655272 -0.362845 -0.544374 -1.038345 -0.596097 -0.760817 -1.222902 -0.401891 0.701868 0.383226 -1.420562 0.808223 0.570242 -0.315058 0.085297 0.169938 -0.590260 0.955949 0.289115 0.372249 -1.264099 -0.453881 0.687191 1.676311 -1.307649 -1.447615 -0.526256 0.356746 0.928326 1.002402 -0.147785 0.548331 -0.787035 0.168594 -0.013070 0.308378 0.290410 0.201861 -0.792692 -1.191980 -0.488393 -0.070791 -0.379196 0.907048 0.037750 -0.554575 0.991309 1.671791 -0.157911 0.261284 -0.570487 1.279219 0.495750 0.560959 -0.447214 0.754780 -0.188395 0.270309 1.025396 0.194825 0.402769 -0.333311 0.458831 -0.578134 0.373234 -0.244573 -0.249637 1.352944 0.561372 -0.280562 1.430020 -0.698727 -0.587052 0.418492 0.703594 -0.892894 -0.510749 -0.078327 0.864241 1.031723 -0.487862 -0.788324 -0.115725 -0.929005 -0.386531 -1.209134 0.378696 0.773334 1.022986 1.193823 -0.205127 -1.050250 1.554438 0.247165 -0.973597 0.768149 0.461420 0.825506 0.323114 0.419764 -1.251000 -0.012959 -0.674218 -0.419051 0.056518 0.670617 1.229543 0.680663 -0.418908 0.036253 -1.769643 0.027135 0.877313 -0.102326 -0.592213 0.376731 -0.468554 -1.473689 -0.346708 -0.663973 1.858804 -0.259828 0.144442 -0.938598 -0.259424 0.984021 -0.592276 -0.345571 -0.029414 -1.184953 -0.113520 -0.783599 0.615558 1.818066 -0.426962 0.911318 -1.030934 -0.874454 -0.578971 0.633102 0.346085 -0.198001 1.176285 -0.808391 -0.339269 -0.415667 -0.173197 -0.070299 -1.257102 -1.178983 -0.263622 -1.787121 0.456043 -0.756947 -0.562730 0.661953 0.120296 1.207282 -0.442518 -1.389972 -0.264760 -0.134115 -0.401899 0.604878 -0.088700 -1.113264 -0.286788 0.028542 1.376405 -0.458098 -0.478289 1.226814 1.411012 1.080747 -0.147633 1.797356 -0.706661 0.191074 -0.955945 0.955495 0.575191 -0.800596 0.304408 1.126528 0.126256 0.642023 -0.275512 0.816898 0.228387 0.379778 -2.488460 -0.724786 -0.639972 0.359065 1.902468 -0.584470 -0.104310 -0.828422 0.195513 -0.568033 1.474763 0.546359 0.223683 
23_02 -0.474377 0.795838 0.321508 1.637846 -1.193619 0.048219 -0.181663 1.586582 -0.873613 -0.789338 1.249459 1.513379 0.906411 0.310074 0.333515 -1.022662 -0.168424 -0.798115 0.202670 0.385035 1.240491 1.514217 -0.574238 0.011456 -0.777294 0.524192 -1.639060 -1.256130 -0.546545 0.305260 0.353263 0.202562 -2.127197 0.928141 0.239039 0.708577 0.240010 -0.189817 -0.591411 -0.844723 -0.754852 -1.005451 1.136818 1.507691 -2.164806 -0.907281 -1.614047 0.927696 -0.596556 0.062381 2.087119 0.841133 0.291596 3.047065 1.209997 0.072522 2.310205 -1.641188 0.971684 1.064872 -1.961983 0.032784 -2.200819 0.183277 0.483576 1.052525 0.881548 2.194787 -0.182671 1.916270 -2.776402 0.449160 0.263831 1.919335 -0.419040 -1.033513 1.394331 -0.357878 -0.208405 1.008664 -0.716992 -0.889325 0.266591 -1.231575 -2.034886 0.983876 0.146259 0.064099 0.004338 1.426801 1.824088 -1.722641 0.604035 -1.318108 0.809245 1.219926 -0.073427 -0.438235 0.285578 -0.446487 0.440512 -1.146145 0.430285 -3.066876 1.656445 -1.842758 -0.784782 -0.409152 -1.759207 -1.821404 -0.914138 0.921193 1.732995 -1.971903 2.107925 1.118499 3.218550 0.140959 1.011934 -0.663192 -0.110427 -1.681686 -0.548399 0.974398 0.380579 -0.033615 0.045253 2.063982 -0.017574 -0.596225 -2.542489 -0.553436 0.478495 -0.548014 -1.042187 -0.232615 0.465791 0.886932 -0.634156 -0.902802 -0.553479 -0.988954 0.415329 -0.503879 1.651154 -1.792202 0.598945 1.320018 -0.337872 -2.041327 -0.715482 -1.677993 -0.310610 1.703509 -0.747322 -0.241664 0.266406 0.008782 0.662967 -0.072185 -1.473843 0.728019 -0.141066 0.510854 0.815408 -1.152701 -2.325422 -0.447746 -0.614176 -1.294757 -0.645058 -0.201787 -0.270753 -1.347993 -0.809546 2.414622 -2.369242 -0.342757 1.404245 -0.109584 -1.805077 -1.929327 0.578443 -0.399465 -0.683319 1.125736 -1.905125 0.784902 1.172213 1.860462 -0.185659 2.511948 1.925161 1.298004 1.698817 0.492528 1.475857 -0.498417 -0.148145 2.178111 -1.101809 1.213708 0.570854 0.255793 -2.530741 -0.257952 0.363923 0.618807 0.289012 1.632735 -1.393604 0.198123 0.171776 1.795926 1.194797 1.293921 -0.628824 1.218233 1.752676 0.098787 -0.107497 1.220219 -0.051585 -1.277667 -3.685857 1.284304 -2.411358 -1.379307 1.512338 -0.247480 1.205538 -1.546658 0.184703 -2.161463 -1.121907 1.350406 -0.672055 -0.145379 0.796962 -1.725422 -0.185134 -0.492923 0.285358 -0.748145 0.131334 0.510000 1.370180 -1.117117 0.931342 0.778347 -1.856311 -0.863817 -0.144460 2.289155 1.971924 -0.578357 2.190077 0.844061 -0.043760 -0.790595 -1.237410 0.409090 0.747458 2.118361 1.779600 0.895609 -2.261791 2.117906 -3.230082 -0.838731 -0.269617 -0.634572 0.152679 1.658330 -0.591861 1.041029 -0.695143 -0.650298 -1.182437 0.024233 0.624223 -1.447149 0.852162 -0.387531 2.562401 -0.145265 -0.217889 0.932882 0.291067 1.168813 0.967984 -0.071558 -0.702202 -2.062001 -0.051923 -0.948076 -0.013726 -0.798585 -0.223853 1.330494 0.732992 -0.904353 0.241788 -0.383764 0.202445 1.321713 -0.848062 0.514988 1.582191 0.271942 0.848672 0.232788 1.009431 -0.299831 2.445342 2.233039 1.111388 0.458328 3.324245 2.087497 0.764026 -0.094455 1.531621 -0.539604 1.203518 -0.519898 1.208058 0.504206 0.050792 -1.043275 -0.474836 0.299522 -0.443817 -0.891573 -1.936505 0.025177 1.575116 -1.841200 -0.589817 -0.943995 1.171944 -0.743179 0.472620 -0.460723 -0.765920 -1.454216 -0.793072 0.171646 0.278405 -0.066444 
205_02 -0.715236 0.433471 -0.097994 1.803662 0.173445 -2.323731 0.621640 2.307887 -1.920648 -0.731104 1.492833 0.066943 1.288992 1.248550 0.211276 -0.317324 0.547846 -0.683398 0.698669 -0.229428 1.235196 -0.053341 -0.784358 -0.211897 0.917638 1.763252 -1.860030 -1.507675 -0.552105 -0.084531 -0.244091 -0.536865 -0.876913 -0.531976 -0.193754 -0.827268 -0.201497 -0.592635 0.079982 0.339941 -0.244932 0.063907 0.796001 0.316610 -0.003056 -0.533020 1.064047 1.161889 2.153984 -1.206931 -0.242686 1.044066 0.826053 0.534623 -0.920699 1.624528 0.644363 -1.946506 0.494403 0.580403 0.652920 -0.277539 0.246519 -0.782675 0.475127 0.164308 -1.980588 0.750255 1.631747 1.386916 -1.054682 -0.096263 0.200946 2.347631 1.340384 -0.774847 1.439300 -0.176226 -0.444105 0.242713 -2.760940 1.608104 0.052673 -0.741272 -0.639110 0.477808 0.346571 0.885823 0.392913 0.952052 1.268847 -1.342397 0.632872 0.821075 0.763895 -0.075405 0.327097 -0.041693 -0.435719 0.505190 -0.199260 -0.066605 0.553782 -1.052203 0.939935 0.455234 -0.257549 -2.726084 -0.960472 0.108307 0.391297 -0.999122 -0.650197 -1.143594 -0.569576 2.152244 1.859553 0.101079 2.019935 -0.603519 -0.991819 -0.873350 0.659858 1.070346 0.041150 0.134930 0.187639 1.730355 -0.230605 -0.050237 -1.285660 0.822977 0.806372 -0.020194 -0.663172 -0.506673 -1.182976 0.430685 1.180228 -2.174870 -0.930595 -0.656637 -1.493673 -0.254135 -0.597321 -0.549147 1.172648 1.934458 -0.173208 -0.900838 -1.114025 -0.461399 0.052291 1.268235 -0.864929 -0.696849 -0.568959 0.444965 0.640815 1.167881 0.554876 -0.085409 0.799209 -1.374624 1.559705 -0.430783 -1.890618 0.242149 -1.190551 0.059355 1.674172 -0.280560 0.629120 -0.446811 0.052071 1.109162 -0.063933 0.947641 -0.220060 0.610439 0.839484 -0.623878 0.312909 0.400700 0.293078 0.020037 -2.198936 -0.524027 -0.232835 0.319109 -0.861438 -0.741205 0.697712 0.905830 1.080320 -0.178709 1.724534 1.219318 1.005229 1.200011 0.590698 -1.193674 0.644235 -1.502007 -0.783297 0.042681 0.911179 -0.066472 -1.242466 1.308061 -1.657945 0.786270 -0.343955 -1.101015 -0.666051 -0.106053 -0.030828 -0.430425 0.672682 1.926051 -1.437266 0.149572 -0.276547 -0.567041 -2.266053 0.997554 -1.209274 -0.342902 0.018993 -2.477390 0.013155 0.182359 -0.189599 -0.235559 1.197083 0.522130 -1.165697 -0.521686 0.257021 -1.148917 0.905596 0.985705 -0.744807 0.754321 -0.512614 0.477469 0.151986 -1.640515 1.216609 1.849161 -1.037054 -0.324057 -0.797407 1.883317 1.050522 -0.701458 0.138929 0.475114 0.493097 1.242039 -0.412768 0.017982 -0.674300 -1.948864 1.142267 0.137444 -1.194367 1.026317 -2.627865 -0.190731 -0.517106 -1.808018 -1.541794 -1.683017 -0.029266 1.567307 -1.195849 1.151438 -0.418268 0.006404 1.325943 -2.136556 0.100358 -0.913764 -0.631315 -0.440626 0.480815 -0.688973 0.466452 1.227648 0.252926 -1.567443 -1.024467 -0.443363 -0.187488 0.310780 -0.578384 -1.318713 -0.605806 -0.315283 -0.787126 -0.385899 -0.598009 0.277384 1.506685 1.222720 -0.787631 -1.188083 0.723707 0.535382 0.378208 -0.202028 -0.184855 0.010860 -0.732763 1.301086 0.559001 -0.020266 -0.342600 -0.431818 1.328224 -0.055427 0.457643 1.390285 1.588706 0.229328 0.509387 1.469562 -1.113526 1.439768 -0.513938 -1.558298 -0.748225 -0.580291 0.323950 -0.045250 0.250606 0.149944 0.787918 -0.656648 0.091270 0.848572 2.111193 -0.221976 -2.062201 0.125248 0.478057 1.132550 -0.331046 1.391886 
22_00 -1.877354 0.700245 1.539180 0.546653 -1.051913 -1.397190 -1.375797 1.274579 -0.411994 -1.040586 -0.694301 -1.286513 0.610996 0.177133 1.092169 0.647548 -0.041702 0.821111 0.303279 1.136577 0.221532 -0.508954 0.071549 0.229377 0.034286 1.160153 0.171840 -2.715813 -1.010824 -1.143505 0.600782 -1.304436 0.381273 0.374499 -1.297372 -0.487757 0.104598 0.196304 0.290577 -1.466535 0.856190 -1.473758 0.303234 1.036109 0.939830 -0.197199 -0.425189 0.748769 -0.010537 0.051811 0.214732 0.238295 -0.199698 -0.466809 -0.637135 -0.439923 1.690025 -0.507109 -0.005746 1.065714 -0.593392 -0.471184 -1.694374 0.495791 0.885100 1.148509 -0.232629 0.606953 -0.424252 1.317154 -1.354713 -0.916213 0.283865 2.185429 -0.481944 -0.752971 0.318095 0.687134 -2.240322 -1.116935 -1.086614 0.301757 0.203298 -0.959245 0.224078 1.044971 1.580345 0.226725 -0.522672 1.172319 1.409334 -0.324221 -0.933651 -0.506083 -0.333868 0.051640 0.866784 -1.258643 1.444826 0.008708 1.090873 0.728837 -0.296589 -0.939685 -0.047199 -1.004233 -0.105550 -0.124018 -1.147617 0.041088 -0.136497 -0.661921 -0.661815 -0.889412 0.533606 -0.063203 1.083596 0.910100 -0.054611 -1.111070 -1.017750 -1.650771 -0.595798 -0.028135 0.704203 -0.647361 1.159109 1.970671 -1.083345 -0.377725 0.833077 -1.105033 3.077764 -0.359738 0.683236 0.542218 0.093593 0.817328 -0.309401 -1.469335 -0.644268 0.644502 -0.729654 -0.900785 0.115105 -1.699377 0.641684 1.523034 -0.084662 -0.192119 -0.787686 -0.511543 0.131651 -0.026822 0.145162 1.367748 0.397027 -0.004398 1.981629 -0.037463 -0.288438 1.988522 0.202842 -0.823733 0.196095 -0.846111 0.107117 -0.031242 -0.413060 -0.974025 -0.405260 -0.692319 -0.144233 0.019318 0.069413 1.568324 -0.591495 0.697050 -0.577480 1.317296 0.771820 -1.131319 0.929784 -0.262455 0.880939 -0.117511 -2.114419 -0.146532 -1.438667 0.812458 -0.336038 0.869562 -0.465062 0.375534 0.959069 -0.153606 1.016506 -0.738266 -0.139381 1.408475 -0.632228 0.340719 -0.501394 -0.276424 -0.996426 -1.273373 0.692618 1.140491 0.971625 0.920850 -0.876842 1.449080 -0.591105 -0.457977 0.893920 1.230832 -1.002174 0.387196 -0.278198 1.110262 -0.136872 0.231000 1.043128 -0.262093 -2.089714 1.038238 0.036237 -0.213549 1.072044 -0.746661 0.288310 0.612051 0.038749 -0.471615 -0.784479 0.708580 -0.622845 -0.880077 -1.830206 -1.063489 -0.637456 0.969800 0.503478 -0.473387 0.651409 0.494099 -0.147492 -0.630734 1.882911 1.297870 -1.119988 0.234159 -0.178240 1.013118 0.378543 -1.377088 0.305718 2.031716 -1.611443 0.231690 -0.994923 -1.345143 -0.716021 0.370184 0.200602 0.065389 -1.830763 1.489897 -2.378721 -1.061772 -0.815511 -1.487918 -0.611102 -0.001921 0.594569 0.439969 -0.435104 0.942247 1.076114 -0.369897 1.425673 -0.475077 0.915600 0.879091 -1.738136 -0.215813 -0.696364 -0.992894 0.587856 -0.118194 0.247820 -0.689604 0.341452 -1.143421 0.305933 -0.209671 -0.125875 0.026467 0.759106 1.656098 0.134686 -0.937294 1.645778 0.105798 1.076074 0.096280 -2.280121 -0.390541 0.729497 0.391747 1.391898 -0.314262 0.685174 0.216016 -0.663253 1.516646 0.823904 2.002005 0.255924 1.375019 -0.752026 -1.486441 -0.139509 1.491092 0.404903 -0.229851 -0.145905 1.126787 1.480882 2.287839 -1.429488 0.380401 -0.024352 -1.608914 0.030025 0.284206 1.892959 -1.340463 0.466451 0.148122 0.981081 -0.252836 1.373497 0.342086 -0.815337 -0.744977 0.974829 1.525180 0.570150 0.526728 
206_02 -0.129938 -0.027939 -0.573038 1.297561 -0.691672 -0.800476 0.447239 2.350654 -0.951604 -1.217020 0.766215 -0.070563 1.059960 1.163362 0.896698 -0.237741 0.719791 -0.900909 0.093364 0.128789 1.549275 -0.362177 -0.566251 0.038068 0.166608 1.882920 -1.883244 -1.167050 0.084577 0.107225 -0.287718 -0.765281 -0.769131 -0.702328 -0.128319 -0.312002 0.423341 -0.272730 -0.013420 -1.016203 -0.403631 -0.090987 0.833991 -0.039910 -0.634824 -0.079029 0.154141 0.227196 1.320187 -0.744891 0.968779 1.090327 0.672127 0.835292 -0.954580 1.241927 1.285667 -1.571619 0.785238 0.940508 -0.890947 -0.758437 -0.580716 0.227546 0.052053 0.556407 -1.247316 1.115176 0.962958 1.244508 -0.615385 -0.784424 0.713357 1.311886 1.148289 -0.385275 0.517326 -0.340389 -1.308995 -0.657993 -2.407729 0.169217 0.498841 -0.393594 -0.959572 0.678904 0.228803 0.346269 -0.169923 0.479169 1.435573 -1.100336 0.024423 0.101721 0.787710 -0.706704 0.272968 0.183935 -0.455252 0.140935 -0.651052 0.054869 -0.027535 -0.245829 0.698845 -0.045578 -0.026794 -1.779737 -0.749294 0.271184 0.489886 -1.136319 -0.085154 -0.865749 0.278474 1.810868 1.982184 1.053791 0.736948 -0.439475 -0.965885 -0.693858 0.008231 1.208290 0.141044 -0.421688 0.349038 2.013164 -0.276050 0.575524 -1.449955 -0.022043 0.700351 0.326202 0.192699 -0.522521 -0.918744 0.414476 0.495223 -1.760401 -0.824038 -0.699226 -2.101433 0.846653 -0.596753 -0.551819 1.588637 1.660643 -0.133627 -1.119313 -1.058760 -0.767100 -0.084124 0.540449 -0.839328 -0.752033 0.210648 0.606982 0.704673 1.721345 -0.286997 0.346074 1.275839 -0.513641 1.459409 -0.116655 -1.193172 0.421852 -1.355670 0.245018 0.837386 0.088798 -0.271902 0.032971 0.150764 1.756598 -0.324846 0.553594 -0.554397 0.665158 0.354909 -0.802542 0.990353 -0.073004 0.731510 0.073222 -2.884069 -0.160902 -0.316848 0.410011 -0.325243 -0.407774 0.616872 1.170163 0.932002 -0.476294 1.406721 0.472879 0.893976 0.972070 0.798448 -1.198104 0.762154 -1.172976 -0.699051 0.094182 0.546372 -0.389224 -0.702222 1.181066 -1.890905 1.275208 0.663170 -0.627212 -0.781332 0.309516 0.038377 0.185411 0.021326 0.838622 -1.315379 1.172310 -0.679048 -0.266275 -1.622621 0.472957 -1.098293 -1.922381 0.493354 -1.495833 -0.656627 -0.412468 0.045774 -1.276000 0.366790 0.114681 -0.329093 -0.502984 0.272987 -0.632706 0.584560 0.244679 0.082531 0.481437 0.176821 0.018617 -0.428169 -0.988182 0.950440 0.763319 -0.995866 -0.496319 0.082730 1.487734 1.428337 0.033966 0.545405 1.688613 0.192078 0.821221 0.157408 -0.675211 -0.727979 -0.740922 0.292159 0.242690 -0.634314 1.846285 -1.985538 -0.316523 -0.552379 -1.009016 -0.865234 -0.606774 0.023887 0.575138 -1.157599 0.303867 -0.263391 -0.597359 1.520597 -0.961434 0.210771 -0.698019 -0.157022 -0.207873 -0.017900 -0.567199 0.773559 1.571431 0.445515 -0.311123 -0.451027 -0.220767 -1.115825 0.066110 -0.080784 -0.944265 -0.702487 0.624401 -0.147436 -0.599040 -1.035033 0.234013 1.195850 0.965126 -0.415652 -1.051545 0.195223 0.399845 0.460442 -0.280779 -0.494101 0.330148 -0.310815 1.146944 0.808678 -0.000417 0.045832 0.634942 0.672090 -0.205898 1.011307 0.498879 0.999066 0.279769 0.291267 1.017227 -0.881469 0.518318 -0.780257 -1.090483 -0.388776 0.224743 -0.303764 0.261730 0.031997 -0.341295 0.523326 -0.988251 0.297896 0.201955 1.042692 -1.214642 -1.149422 -0.421444 1.053671 1.178343 0.371234 0.016789 
201_02 -0.922088 -0.242784 -0.212883 1.097384 -1.035639 -0.241275 -0.084307 2.009742 -0.107526 -0.950324 0.320261 0.182381 0.369489 0.881454 0.420074 -1.266559 0.843402 -0.247722 -0.164487 0.391746 1.686773 -0.041618 -0.494066 1.192653 -0.685772 0.879672 -1.450554 -0.542402 -0.410030 0.249456 -0.059751 -0.409926 -1.193821 0.276300 -0.319114 0.369440 0.368055 -0.063717 -0.978022 -1.572148 -1.559300 -0.986793 0.981647 -0.237489 -1.525646 -0.015300 -0.913638 0.448471 -0.361652 -0.768611 2.605975 0.511235 -0.287933 1.368035 0.648247 1.011973 1.789087 -1.927684 1.793297 1.404826 -1.652294 -0.724303 -0.807797 0.245276 0.674678 1.463806 -0.529595 1.013342 -0.513678 1.463875 -2.028260 0.033982 0.137367 1.477852 0.566662 -1.451564 0.389011 -0.512106 -0.575796 0.875997 -0.727769 0.221297 0.255594 -0.622837 -1.603578 0.751201 0.385776 -0.273206 -1.396970 1.141470 0.617366 -0.336541 0.368632 -0.279153 0.840033 0.550242 -0.251023 -0.005622 0.535709 0.121114 -0.167191 0.253252 -0.223444 -0.991014 0.794465 -1.261262 -0.458477 -1.753601 -1.670148 -0.466694 0.606553 0.480225 1.150176 -1.311393 0.036237 1.155687 2.367951 1.295783 0.378410 -0.986122 -0.417601 -0.686040 -0.194320 0.582415 -0.037341 0.345607 0.290202 1.856660 -1.312869 -0.801391 -1.175769 -0.318981 0.746609 0.098456 0.356343 -0.439091 0.253722 0.314771 -0.815099 -1.841244 -0.363023 -1.132960 -0.634728 0.540422 0.825999 -1.119122 1.119199 0.372412 -0.345761 -1.799725 -0.417687 -1.378871 -0.324269 0.795039 -0.718956 0.027672 0.576176 0.583781 1.347240 0.986834 -0.961608 0.330812 0.749968 0.140111 0.748857 -0.229935 -0.519326 -0.623271 -0.283303 -0.425790 0.832929 -0.574377 -0.288632 -0.472753 -1.001193 1.219757 -0.603751 -0.045558 -0.153161 -0.481631 -1.272854 -1.069396 0.665688 0.084844 0.444486 0.090012 -2.337955 0.475608 -0.252898 0.839881 -0.749773 0.892842 0.923230 1.155909 0.357393 -0.054449 1.242046 -0.011433 0.727056 2.300725 -0.045761 0.168574 0.202019 -0.772792 -0.726712 -0.147468 1.089885 0.207666 0.422115 0.069248 -1.517290 1.425030 0.045460 0.994295 0.103619 1.394127 -0.691720 1.003632 1.182827 0.832859 1.110013 1.305048 -0.474313 -1.508231 -1.833857 0.929238 -1.429790 -1.160604 0.546818 -1.556259 1.424790 -0.333228 -0.672554 -2.091153 -0.074839 1.614308 0.407733 -0.082929 0.503405 -1.642771 0.588152 0.130831 0.978322 0.093755 0.920550 0.185126 0.343133 -0.772568 0.305200 0.702145 -2.057365 -1.058264 0.498105 1.134139 1.431003 0.281196 0.929541 0.584118 0.370741 0.643547 -0.707592 -0.122444 0.495840 1.572061 0.536956 0.849115 -1.012860 1.869212 -2.662489 -0.118997 0.226299 -0.354248 -0.152014 0.181591 -0.131711 1.062254 -0.425810 0.048645 -0.070472 0.088658 0.627495 -0.953376 1.350135 -0.479150 0.847116 0.184891 -0.280447 -0.470172 0.947154 1.043600 0.188949 -0.082602 -1.092623 -1.188983 0.092851 -0.666152 0.727714 -0.552307 -0.187946 1.439633 -0.044811 -0.884297 0.401274 -0.553568 1.174955 0.538451 -1.122914 -0.157706 0.707350 0.303767 0.073401 -1.018978 0.089287 -0.006190 1.162170 0.974688 0.033753 -0.112964 2.331210 2.375001 0.267708 -0.352727 1.802541 0.245691 1.759257 0.168753 0.577885 0.256794 -0.083014 -0.671065 -0.668229 0.079293 -0.597248 -0.904700 -0.856875 -0.155606 0.802547 -1.939501 0.017332 -1.012324 0.748053 -0.626458 0.454961 -0.729802 -1.697251 -1.123553 -0.178400 0.094006 -0.997693 -0.520488 
201_00 -1.065319 0.577499 1.522088 -1.085048 -1.060302 -0.226015 0.353574 1.739211 -0.419390 -1.709808 -0.493372 0.158770 0.189044 0.273403 0.871285 0.277766 0.481215 1.163782 1.675709 2.367235 0.150703 -0.580812 -0.630221 -0.099124 -0.788545 1.201843 0.076293 -2.103162 -0.821780 -0.186298 1.186710 -1.341453 -0.010647 0.960573 -1.142615 -0.004121 1.174028 0.487996 -0.346737 -1.414027 0.358945 -0.824801 -0.128990 0.901076 0.179253 0.356346 -0.859781 -0.228281 0.139171 0.590067 0.911797 0.442112 -0.754441 0.131887 -1.118424 -0.690114 1.701958 0.275591 0.314587 1.024099 -1.712986 -0.385594 -1.232351 0.269537 1.385649 1.151514 -0.032893 0.932727 -1.311365 1.157402 -0.758047 -0.561806 0.759512 0.973274 -0.201335 -0.691539 0.381227 1.448732 -2.096910 -0.648327 -0.278810 -0.270115 0.215339 -1.118705 0.128960 1.032188 0.956509 0.309098 -0.979552 0.394772 0.944012 -0.763009 -0.203873 -0.301781 -0.756944 0.208848 -0.287335 -0.634270 0.309151 -0.225827 0.599294 0.930879 -1.124798 -1.127268 -0.500497 -1.639668 -0.381478 -0.586526 -1.249214 -0.317873 -1.280059 -1.347787 0.049415 -1.804315 0.525722 0.487534 1.970655 0.095505 -0.792762 -0.685045 -1.029460 -1.670824 -0.707555 -0.145572 0.493278 -0.242105 0.649341 2.044081 -0.905240 -0.252762 0.445375 -0.429860 3.424638 -0.808500 0.546255 0.134814 -0.145570 1.234267 -0.584586 -1.392831 -0.296980 -1.563773 -0.649780 0.252883 0.424341 -0.594857 0.888706 1.339132 -0.868729 0.016500 -0.403024 -1.355356 0.674270 -0.679711 -0.406103 0.271601 1.380501 0.593957 2.489294 -0.422990 -1.036384 0.861716 -0.367002 -0.011747 -0.160577 -1.172682 -0.651074 -0.430560 -0.160775 -1.642772 -0.004126 -0.665018 -1.278274 -0.408350 -0.741407 2.237911 -0.741824 -0.020573 -0.347809 0.147626 -0.421562 -2.019080 1.609630 0.643947 0.407789 -0.195369 -1.128830 0.315908 -0.591240 0.277839 -0.123444 0.467853 -0.362534 0.280898 0.834102 0.028559 1.641638 -1.259748 -0.794614 1.808277 -0.194412 -0.006597 0.292327 -0.685930 -0.546306 -1.831333 0.431112 1.617067 1.481264 0.899042 -0.213595 0.525722 -0.681712 -0.244332 0.320046 1.106358 -0.915737 1.389217 -0.039975 0.973987 -0.182405 0.167513 0.766202 -1.338856 -2.098432 1.220996 -0.478764 0.279760 1.423044 -0.944391 0.116510 0.602266 0.464396 -0.897490 -0.403275 0.873248 -0.158093 -1.805248 -1.491709 -1.310587 0.431990 -0.129496 0.986911 -0.044250 1.247015 -0.400054 0.556598 -1.003426 1.731256 1.088466 -0.783745 0.234192 -0.290930 1.008445 -0.074555 -2.178697 0.710579 0.708119 -1.215569 -0.416942 -1.419795 -0.448374 -1.064291 0.689005 0.131993 0.692511 -2.171188 3.158373 -2.453962 -0.536975 -0.621254 -0.716669 -0.518233 0.694168 -0.164113 0.849947 -0.279930 -0.208046 0.534951 0.914353 1.558608 0.151792 -0.218791 1.499240 0.653591 -0.728284 -0.720212 -1.707452 0.508863 -0.147013 0.973191 0.405471 -0.732572 -0.798671 0.236322 -0.435886 0.366497 0.327330 0.551855 1.105869 -0.206617 -0.396140 0.652549 0.351306 0.904117 -0.003373 -1.751360 -0.500517 0.712354 -1.008546 0.709991 -0.589796 0.220218 -0.352964 -0.143482 1.952838 -0.203665 1.733814 1.113807 2.624438 0.086535 -0.785203 0.323212 0.932696 0.931951 -0.504898 -0.564088 0.549301 0.233529 0.394013 -2.813534 0.893831 0.344261 -1.335146 -0.189980 0.091974 1.899821 -1.542217 0.164420 0.696924 0.865089 0.346842 0.919570 0.286888 0.045042 -2.138345 1.145578 1.232461 0.532780 0.518428 
34_00 0.350218 1.289553 -0.869605 1.912088 0.265770 0.149093 0.563677 1.241780 -0.523010 1.410641 0.265983 1.204149 -0.153389 0.727597 -0.167072 -0.409804 1.185530 -0.662990 0.720382 -1.055257 -0.027708 1.002687 -1.514837 0.769154 -0.344140 -0.458476 -1.346122 1.369854 -0.352838 0.373480 -0.731415 0.060515 0.061466 -1.304638 -0.143482 -0.100345 1.399815 -0.697354 -1.231350 -1.753391 -0.510754 -1.467444 1.670440 1.089957 1.776835 2.374011 0.433902 0.997189 1.491939 0.425498 -0.421063 0.816483 1.028690 0.296258 0.196190 0.033351 -0.934341 0.253399 0.141522 -0.346270 0.713662 0.025724 -0.306704 0.212948 0.872539 0.886337 -0.203531 0.580874 -0.706196 1.994295 1.070108 -0.348614 -0.001432 -0.729999 -1.832073 0.541271 0.511706 -1.368900 -0.389240 -0.877337 0.237020 -1.012067 -0.567790 2.757750 0.859931 0.179098 1.029621 -0.222482 1.773735 -0.051245 0.245342 0.363621 1.253624 0.083798 -1.369373 -1.465862 1.018710 -0.360218 -0.985385 0.088180 -0.052763 1.794461 -1.384912 -1.008993 -0.434869 -0.665341 -0.535003 -0.029140 0.349789 -1.037166 -1.599888 -1.542849 -0.179046 0.954705 -0.773629 1.106016 -0.002547 0.480220 1.001117 0.626066 -0.467575 0.820468 -1.130012 -0.386406 -1.765575 0.571570 -0.186314 0.232105 0.359414 0.052137 -0.656943 0.865018 0.680261 0.563844 0.302372 0.803072 1.784378 1.729678 -0.741891 -0.680281 -0.139639 -0.708711 1.419724 0.250703 1.044330 -0.801614 0.709420 0.450132 -0.136456 -0.097553 -0.205521 -0.900552 0.250003 -1.024778 -1.260779 1.033400 0.991683 -1.165504 0.502612 0.451322 -1.559068 -0.121892 -0.703322 -0.585987 0.601198 0.701419 0.747796 -0.431709 0.111649 0.190902 1.578437 -1.247354 -0.806899 -1.003551 0.568926 1.455766 1.724114 -0.197577 -0.173837 -0.164901 0.201716 -0.516351 0.389858 0.882586 -0.133347 -0.118529 -1.463596 -0.755957 -0.146906 0.734015 0.796601 -1.060921 -0.534107 1.300586 1.333654 -0.279091 -0.299687 0.639373 0.274174 -0.081685 0.161774 0.292091 0.165498 -0.008858 0.234341 0.462606 0.302410 -0.113518 -0.753670 0.675770 -0.865552 -0.488945 1.733402 -0.832846 1.398203 0.028647 -0.288751 2.252524 -0.136178 -2.232520 1.525118 -0.568216 -0.518107 0.190807 -1.480680 0.677621 0.051821 -1.423310 -0.040496 0.673227 -0.648501 0.088008 -1.779186 0.230957 0.574788 1.664441 0.491205 0.040118 -1.273432 0.586805 0.780707 0.016062 0.747106 0.873989 2.002597 1.399501 0.585714 -2.014368 0.841347 -0.323709 -0.344876 -0.300283 0.841279 0.719513 1.178370 -0.821678 0.776546 -1.798379 -0.328670 0.296181 1.172645 -0.740314 0.869938 -1.098831 -0.995232 0.421177 -1.705944 2.014336 0.032131 0.473455 -1.613138 -0.330451 1.395729 0.663026 0.449956 0.093554 -2.074709 0.773957 -0.217446 0.948686 1.962585 -0.232454 0.103555 -1.042930 -0.927472 -1.052180 1.422383 1.711975 -0.381443 -0.622857 -1.593569 -0.021068 0.439548 -1.711496 0.114016 -1.963986 -0.261596 -0.288598 -1.400224 0.658907 -0.683043 -0.650249 0.167787 0.254094 -0.193871 -0.659694 -1.168225 -0.263255 0.943160 -0.233387 0.671987 0.176527 0.333430 -0.074047 -0.430149 0.549643 -0.897449 -0.508351 0.720794 2.836657 1.166318 -1.699855 0.889183 -1.615379 0.034741 -0.404058 1.283754 1.509394 -0.678867 -0.730024 0.706799 -1.241257 1.005061 -0.666293 0.573682 -1.388122 1.149734 -2.849327 -0.944495 -0.235782 0.106652 1.323933 -0.134137 -0.311428 0.123425 0.365828 -0.692101 1.313864 -0.539887 1.272557 
210_00 -0.408628 0.696741 1.115553 0.020992 -0.742325 -0.118719 0.667218 0.999644 0.748979 -1.717266 -0.617902 1.285058 -0.346432 0.174531 1.025603 -0.072362 0.134886 1.162669 1.528787 0.367702 0.340319 0.811104 -0.723171 0.514627 -0.423387 0.149290 0.062925 -1.128127 -0.894670 0.849601 0.356559 -1.025820 0.562285 0.613280 -0.644082 1.054876 1.233477 -0.262217 -0.469198 -1.527395 -0.116488 -0.826856 -0.312833 0.187569 0.437835 0.518493 -1.222882 -1.197484 0.610182 0.400669 0.779526 0.339121 -0.578365 -0.203109 -0.987012 -0.814419 2.066063 -0.270684 0.529490 0.405153 -1.467515 0.389010 -0.574734 0.302939 1.635002 0.752436 0.820229 0.657147 -0.398607 1.054053 0.021356 0.283627 0.376921 0.641838 -1.424718 -0.889897 0.320223 0.780782 -1.146188 -1.035554 -0.562760 -0.860756 -0.067613 -0.389571 0.436291 0.798652 0.295070 0.603824 -0.691151 0.912653 0.623238 -0.291301 -0.743167 -0.337643 -0.645474 0.022472 -0.522561 -0.696888 0.073332 -0.145640 -0.059639 1.931082 -0.531672 -0.603370 -0.029048 -0.655938 0.655813 -0.326544 -0.912947 0.659940 -1.297426 -0.545384 0.246681 -1.114497 0.757093 0.273768 1.483166 -0.217885 -1.081742 -1.238585 -0.658473 -0.361049 -0.370057 0.477195 0.508526 0.018434 0.245337 0.897387 -0.344035 -0.062795 0.206453 -0.779918 1.994375 -0.815447 0.270879 0.152034 0.917000 0.841404 -0.812243 -1.371012 -0.568571 -0.933464 -0.198319 0.959549 0.193608 0.068111 1.144817 0.785063 -0.710562 -0.210410 0.593931 -0.890302 0.207513 -0.897399 -0.491446 0.279677 1.020503 0.146122 1.805070 -0.658255 -0.051759 0.352374 -0.502409 0.170804 0.067891 -0.896848 -0.930251 -0.023860 -0.222588 -0.831815 -0.385458 0.174666 -1.638985 -0.648949 -1.310831 2.446050 -0.305011 -0.029995 0.229855 0.875549 -0.037724 -1.331952 1.467222 1.089389 0.579794 0.143754 -0.989909 -0.004094 0.768744 -0.225541 -0.976191 0.916096 -0.026677 1.453504 1.215353 0.589182 1.936218 -0.212200 -1.005613 0.517889 0.540123 1.155468 0.635329 -0.348650 -0.151052 -1.298043 -0.174826 1.866323 1.051557 0.320305 -0.389907 0.101385 0.454439 -0.686605 0.545724 1.514984 -0.280194 1.130301 -0.816390 -0.456914 0.622515 0.203726 0.651895 -1.888767 -1.884578 1.626724 -1.228453 -0.812173 1.115335 -0.656850 0.650084 0.162775 0.510094 -0.331982 -0.763995 1.051857 -0.857412 -1.380290 -1.566706 0.034807 -0.475208 -0.670450 0.846500 0.930787 0.665494 -0.019976 0.385258 -0.335728 0.918805 0.552229 -1.252266 -0.349980 -0.385692 1.617181 0.355919 -1.121327 0.628758 0.137706 -1.957959 0.437110 -0.245627 -0.354732 -1.595507 0.960566 0.321977 0.548160 -0.855254 2.570600 -2.133517 -1.215935 0.790801 -0.416215 0.688970 -0.096710 0.781240 0.990489 -0.594210 0.564333 0.114838 0.398651 1.912369 0.481778 -0.066679 0.617173 -0.317371 -0.199492 -0.695182 -0.596276 0.881938 0.046959 -0.413866 -0.203291 -1.001498 -0.962319 -0.522258 -0.010674 -0.165012 1.165032 0.479000 0.964065 -0.885058 0.367404 0.481114 0.767882 1.097087 -1.156419 -0.824411 0.109966 0.313425 -0.914462 1.116144 -0.907220 -0.057517 -0.536476 0.363099 1.101410 -0.244505 1.277817 1.060217 2.917542 0.050832 -0.405371 0.471102 0.917848 0.726135 -0.673040 -0.729295 0.883507 -0.382214 0.622344 -2.273274 -0.000323 0.095922 -0.725878 -0.249229 -0.256984 1.722563 -1.049457 -0.224670 -0.455016 0.765235 0.198930 0.282972 -0.304331 0.374233 -2.621700 0.844226 0.294925 0.246886 1.106657 
92_02 -0.511786 0.418727 0.217219 1.081179 -0.274988 -1.254410 0.809370 2.383456 -0.322548 -1.367811 0.894893 0.227666 1.186364 0.214061 0.807052 -0.959292 0.555510 0.242167 0.085538 0.414981 1.500848 0.148495 -0.242203 -0.041902 0.039073 1.568911 -1.931637 -1.323639 0.289652 -0.832175 -0.688047 -0.482976 -1.486776 0.243881 -0.113628 -0.181667 -0.360575 -0.146374 -0.434643 -0.918497 -0.195740 -0.077923 0.848873 0.035951 -0.850497 -0.033886 -0.117305 0.906133 1.384768 -1.689147 0.766093 1.404246 -0.065944 0.828044 -0.236907 1.300370 1.572335 -2.236702 0.469783 0.865853 -0.614097 -0.051600 -0.663297 -0.602550 0.052884 0.844552 -1.241275 0.670192 0.004670 1.324044 -0.773725 0.254830 0.381189 0.963303 0.528797 -0.606132 -0.055029 -0.191704 -0.781936 0.231461 -1.526243 0.879026 0.312905 -0.054260 -0.377135 1.059772 0.034281 0.651489 -0.440340 1.292042 0.812323 -0.441408 0.378468 -0.024425 -0.327332 0.250853 -0.169861 0.356992 -0.561236 0.637973 -0.034945 0.187296 0.240027 -1.256823 0.830900 -0.221252 -0.264878 -2.467622 -1.300871 -0.306685 0.726971 -0.526994 -0.238092 -1.550846 0.106244 1.767148 1.535909 0.664228 0.857350 -0.913472 -0.213088 -1.062141 0.201828 0.910111 0.036821 0.050551 -0.018208 2.330115 -0.640832 -0.064955 -1.483867 0.018115 0.755910 0.182457 0.154135 -0.050789 -0.774840 0.693771 0.511163 -1.427350 -0.689814 -1.157512 -0.976288 0.855258 0.031046 -0.547509 0.740001 1.244032 -0.034679 -1.191773 -1.072856 -0.518962 0.103682 0.556502 -0.767356 -0.668232 -0.204613 0.709793 0.978919 1.341948 0.007265 -0.105965 2.079051 -0.287082 1.246147 -0.244283 -1.320113 0.075298 -0.614668 0.473396 0.611060 -0.313158 0.396721 -0.268295 -0.465878 1.174926 -0.433432 0.797494 -0.649260 0.211351 0.091027 -0.584419 0.460093 -0.159395 0.912906 0.267450 -2.344416 -0.112610 0.206946 0.572691 -0.310741 -0.518995 0.622517 1.705006 1.198527 -0.213700 0.889718 0.395295 1.348377 1.551019 0.602923 -0.971080 0.693432 -1.236577 -1.118184 -1.130555 0.620214 0.106253 -0.622179 0.897484 -1.981822 1.043291 -0.324442 0.116907 -0.295030 0.917666 0.231886 0.183577 0.727530 1.493377 -0.894406 0.719708 -0.600886 -1.391133 -2.077829 1.641724 -1.112435 -0.979816 0.869612 -1.248518 0.112969 -0.040623 -0.196350 -1.427078 1.023801 -0.439815 -0.115185 -0.169235 0.420786 -1.124896 0.758662 0.129335 0.337400 0.616720 0.301716 0.244010 0.221927 -0.586534 0.579722 1.442470 -1.763479 -0.236047 -0.068694 1.424506 1.082007 -0.602798 0.589605 1.054591 0.318196 0.613620 -0.836201 -0.332487 -0.358153 -0.482109 1.194528 0.600393 -0.873049 1.839914 -2.142050 -0.118032 -0.279841 -0.720604 -0.501830 -1.070219 -0.253182 1.284574 -0.290900 -0.044853 -0.703984 -0.216069 1.509372 -1.517994 0.782137 -0.423409 0.037401 -0.427682 0.018872 -0.183260 0.300866 0.872608 0.625840 -0.649867 -0.815257 -0.498775 -0.407860 -0.151712 0.745742 -0.924861 -0.285850 -0.057926 -0.538848 -0.521112 -1.086883 -0.507892 0.866090 1.440371 -1.251988 -0.505148 1.197434 0.874084 0.018850 -0.451523 -0.568313 0.088912 0.035492 0.531450 0.296160 -0.075753 0.960932 1.417340 1.227158 0.286041 1.064840 1.331779 1.132647 0.008209 -0.172970 0.791785 -0.920527 0.179611 -1.086867 -1.231594 -0.564379 -1.096961 0.021995 0.069948 0.677969 -0.575703 0.043670 -1.029572 -0.537266 0.364912 1.017370 -0.514237 -2.105091 -0.588603 0.353975 1.043999 -0.350488 0.422126 
208_00 -0.554865 0.716230 0.895906 -0.777167 -1.153555 -0.104868 0.003270 1.039313 -0.711665 -1.164225 -0.751841 0.222725 0.800731 0.213580 0.970053 0.236068 0.190055 0.703919 1.297134 1.106533 0.385167 -0.060151 -0.279185 -0.193367 0.028341 0.987353 -0.585221 -1.942387 -0.280633 -0.759432 0.640687 -1.004557 0.206721 0.957954 -1.023409 -0.051459 0.078599 0.877655 -0.455473 -1.024479 0.842154 -0.927320 -0.276357 0.944253 0.860322 0.914109 -0.625274 -0.257917 0.216230 0.208966 0.365109 0.312115 -0.709914 -0.488596 -0.603777 0.008840 1.269632 -0.061543 0.503103 0.334648 -0.993960 0.157582 -1.128048 0.216083 0.571730 1.390217 -0.318316 0.782426 -0.871881 0.891646 -0.635252 -0.140312 0.848597 1.405083 -0.806938 -0.522987 0.353965 1.364219 -2.249652 -0.708760 -0.220652 0.124291 0.578880 -0.367657 0.055973 1.577887 1.104551 0.033944 -0.804919 0.402760 0.811330 -0.370837 -0.340992 0.446605 -0.617320 -0.116155 0.245485 -1.460393 0.147650 -0.442742 0.562709 1.117101 -0.279495 -0.951864 -0.433494 -0.777967 -1.098333 0.114154 -1.576056 0.631983 -0.340362 -0.862919 -0.333198 -1.638126 -0.083607 -0.363077 1.465374 0.134402 -0.122889 -1.138146 -0.049388 -0.634645 -0.908765 -0.250731 0.268224 -0.868012 0.243708 1.621973 -1.481803 0.506020 0.743568 -1.179143 2.759932 -0.494690 0.210369 0.410937 -0.398871 1.062261 -0.723543 -1.725765 -0.246199 -0.657370 -0.966608 0.214600 0.230720 -1.861825 0.599253 1.201335 -0.647354 0.085845 -1.233300 -1.320418 -0.154315 -1.356863 -0.087244 -0.448405 1.024856 0.272599 1.977137 -0.089423 -0.548815 0.511451 0.339064 -0.514197 -0.056458 -0.341382 -0.419149 -0.212580 -0.185769 -1.236674 0.265915 -0.802132 -0.713396 -0.582687 -0.086971 1.963666 -0.720440 0.769538 -0.844839 0.520690 0.124013 -1.958640 1.216473 -0.034049 0.295639 0.125496 -1.868059 -0.383485 -0.856345 1.164324 -1.071738 0.462766 -0.311464 0.609183 0.717820 -0.124293 1.704353 -1.348465 0.093130 0.688814 -0.197888 -0.108680 0.040003 -0.517139 -0.597689 -1.135335 0.652418 0.519295 0.590825 0.499290 0.146766 0.492029 -0.459331 0.035305 0.062640 0.545120 -0.267306 0.789317 -0.246635 0.395763 -0.845386 0.181554 0.306730 -0.841570 -2.405299 1.113467 -0.327379 -1.052020 0.958133 -0.213962 0.068622 0.681674 0.003405 -0.142795 -0.488597 0.873305 -0.442907 -1.626773 -1.637981 -1.890040 -0.098410 0.213285 1.164443 0.488022 1.022139 0.212236 0.251762 -1.264257 1.266221 1.085231 -0.777032 0.771046 0.039779 0.949754 -0.183656 -2.075901 0.654803 0.832697 -1.512172 0.632297 -0.961285 -1.108372 -0.719840 0.621458 0.148704 -0.246686 -1.786793 1.606292 -2.419638 -1.347971 -0.162252 -0.281788 -0.377982 0.165199 0.610292 0.547083 -0.164278 0.194901 0.571648 0.017267 2.313128 -0.092477 0.214092 0.510196 -0.921407 0.086105 -1.128592 -1.130080 -0.292829 0.136261 0.698656 0.231618 0.226474 -0.802269 -0.072918 -0.862254 -1.330014 0.656467 0.742320 1.063384 -0.092464 -0.338911 0.457853 0.604044 1.246811 0.059727 -1.515618 -0.905442 1.004867 -0.605313 0.911080 -0.361512 0.342344 0.485351 -0.119553 0.978437 0.331614 2.045081 0.246484 1.727264 -0.065016 -1.043711 0.064504 1.487885 0.425555 -0.469674 -0.312338 0.598991 0.629110 1.375145 -2.479917 0.085798 0.698012 -0.651859 0.369231 0.015651 1.967905 -0.979504 0.272396 0.294788 0.990579 0.227697 0.499121 0.020133 -1.197162 -2.013862 1.476660 0.962030 0.111873 0.977976 
205_00 -0.023601 0.895551 0.879846 -0.364255 -0.296844 -0.906289 -0.320376 0.693992 -1.034741 -0.893900 -0.583140 -0.217650 2.588871 0.472525 1.768009 -0.459300 1.003035 0.910025 0.155489 0.366154 0.645294 -0.612067 1.255662 -0.578472 0.420827 1.769127 -1.394158 -0.899868 -0.628688 -2.309643 0.646833 -0.765845 -0.437590 -0.450933 -0.414849 -0.412097 -0.328836 -0.014600 1.125367 -0.949032 1.309415 -0.383844 -0.413455 0.237645 1.696657 -0.245288 -0.251065 0.240033 0.678022 -0.608637 -0.501293 0.248524 -0.303730 -0.172375 -0.019716 1.125926 0.451676 -1.463332 -0.420627 1.562787 0.186679 -1.026862 -1.580944 0.089762 0.345633 0.822770 -1.474141 0.717648 0.590977 1.357124 -0.998074 -0.706389 0.437083 1.456220 -0.908338 -0.533666 0.228028 0.588139 -2.102798 0.148263 -1.287127 0.721610 0.055660 -0.422745 0.592242 0.439097 1.627731 -0.277243 -0.402537 0.579468 1.815740 -0.795845 -1.880120 -0.191434 -0.192360 -0.648428 0.787399 -1.126909 -0.681436 0.220806 0.347566 -0.357212 -1.120325 -1.027371 0.213636 -0.958604 -0.476209 -0.616076 -0.718736 1.283361 1.619959 -0.553709 -0.939733 -1.332712 0.262852 1.504778 -0.072964 -0.266110 0.559201 -0.204284 -1.238324 -0.768555 -0.796102 0.365968 -0.725069 -0.943405 1.296610 0.851196 -0.973090 0.902265 0.906400 -0.453949 1.915070 0.364168 0.567735 0.000579 0.188778 -0.221534 0.338603 -1.678444 -0.810277 0.643312 -1.159768 -0.201926 -1.142249 -1.385132 1.005046 1.651790 -0.153146 0.153637 -1.538112 -0.223025 0.046697 0.570174 0.119285 0.346913 0.030089 0.294092 2.015400 0.158501 1.034060 0.181780 0.182735 -0.965017 1.625495 0.702307 0.390143 -0.006001 -0.078205 -0.539926 0.273945 -0.635144 0.754734 -0.141520 0.369156 1.253912 -0.306999 1.124934 -0.990090 1.227051 0.266968 -0.994628 0.475963 -0.431458 0.582002 -0.588498 -1.503187 -0.799528 -0.749812 1.755567 -0.876829 0.915355 0.208059 0.181934 1.230436 -0.539427 2.232378 -0.361761 0.827182 -0.624249 -0.061104 -0.515292 0.349427 -0.301713 -0.937855 -0.673390 -0.381652 -0.292203 0.034915 -0.147393 -0.965601 1.338003 -0.413163 -1.485192 0.135598 0.109326 0.325787 -0.055838 -1.765006 1.187344 0.296213 0.999155 -0.304003 0.376270 -1.417403 2.164812 0.008207 -0.399349 1.746083 -0.815906 -0.716247 0.832519 0.349413 1.096122 0.666417 0.442466 -0.148293 -0.918605 -2.393009 -0.691171 0.111177 0.722094 0.589651 -0.118655 -0.166278 0.519235 0.824548 -0.019275 0.851111 1.877418 -0.827221 0.824525 0.329474 0.213090 -0.443298 -1.079619 -0.206603 1.414933 -1.253113 -0.221777 -0.777338 -1.954477 -0.619228 -0.514890 0.359091 0.014693 -0.599266 1.835045 -0.931041 -1.917621 0.199487 -1.748573 -1.617878 -1.033224 0.787404 0.325137 -0.806714 1.091068 0.575663 -0.257695 0.231322 -0.164596 1.343686 -0.359258 -2.304187 0.600887 0.075290 -1.519676 -0.165624 0.338010 -0.376157 -0.045225 0.719752 -0.670627 0.549306 -1.468822 -1.830732 -1.406957 0.162674 0.883445 0.911077 -0.110370 0.314385 0.688344 2.261786 -0.504042 -2.174124 -0.428030 0.791305 1.345438 0.149148 -0.569491 1.418136 0.392322 -1.826228 1.581996 0.687388 1.588688 -0.309470 0.392014 0.286420 -1.636336 0.066729 0.722941 -0.382779 -0.148741 -0.494390 0.531230 0.632964 0.940968 -0.815190 -0.493560 -0.325278 -0.228236 1.001632 0.403080 0.617024 -0.233086 0.433897 0.397661 0.677224 0.355371 -0.321198 -0.355101 -1.710687 0.198549 0.620628 1.208029 0.072495 1.189916 
25_02 -0.127235 0.954572 0.163561 0.275982 -3.422165 -0.150228 1.416487 -0.153555 1.169089 -1.343691 -0.209677 0.411135 1.235419 -1.199085 0.785130 1.652062 0.770823 -0.443110 1.391637 1.197923 1.069230 2.670049 0.274498 0.058549 -0.946695 -0.050000 -0.376366 -0.439453 -0.747274 -0.311896 0.767224 -0.530110 -0.064257 0.667120 -0.253647 1.905554 1.480475 -1.561124 -0.659603 0.106713 -3.225299 -1.010820 0.247773 1.179267 0.572850 -1.380082 -1.016826 -1.660437 1.262324 -0.648180 1.501149 0.778159 0.817261 0.910424 -0.831361 0.003451 0.826636 -0.256412 -0.615068 -0.085680 0.383027 0.724033 -0.872365 0.950618 1.136361 0.870288 1.902252 1.582240 1.139730 0.410676 -1.419183 0.741000 -0.140112 0.316906 -1.918826 -0.709756 0.681561 0.580184 -1.225161 0.579924 -1.030536 -1.688528 0.499957 -0.063428 0.389194 0.095165 -1.037021 0.026786 -0.396781 -0.164792 -0.163590 -1.093517 -2.065191 -1.697874 -0.997653 0.809767 0.752791 0.219247 0.206415 2.273983 -0.595850 -0.122343 0.320009 -2.021632 0.652575 0.029591 1.147925 0.824856 -0.935545 -0.186641 -1.854997 0.104711 0.917955 -0.502548 0.798877 -0.850456 1.730543 -1.131379 0.395094 -1.164227 0.095401 0.152504 -0.429622 1.279626 0.459900 0.014575 -1.059896 0.506302 1.909894 0.659176 -1.542233 -0.265128 -0.164995 -0.091315 -0.659398 1.860006 2.110313 0.444249 -1.455508 1.447193 -0.306738 0.979171 1.966031 1.105130 -0.047471 0.065401 -0.240263 1.279742 -1.505927 -1.568372 0.822925 -1.338006 1.148268 1.068511 -1.912189 1.434074 0.036815 0.787692 0.019106 -0.372838 -1.592344 -0.170072 0.237769 -0.058426 0.627651 -0.611824 -3.147705 0.267114 -0.359102 -1.451556 1.127500 0.921543 -1.153610 -2.225548 -1.610111 1.502911 -1.369085 -0.379873 0.604607 -0.014011 -0.331132 -1.616109 1.366920 -0.366190 -1.438948 1.088441 0.265233 0.647667 2.244643 -0.615354 -1.922844 1.824611 -0.284501 0.995598 1.121191 2.137729 1.569066 -0.953959 -1.899147 0.715474 0.403799 3.745356 0.531714 2.777773 0.224470 0.487870 -1.068783 0.996695 0.647655 0.484615 -1.059874 -0.433882 1.604918 0.566013 1.913439 1.512689 -0.566325 0.268996 0.677490 -1.534396 1.408022 -1.031685 1.273405 -1.679706 -1.686562 0.550458 -0.328060 -0.591119 1.385615 0.177570 2.682418 -1.632643 0.198207 -0.560262 -1.273281 1.278742 -0.688721 -0.402565 -0.229809 -0.103428 0.259701 -1.505731 0.680750 0.721043 -0.607702 0.834462 0.886246 0.537176 1.414738 0.401835 -0.711791 0.365209 -0.382172 1.681349 0.427933 -0.104972 1.869960 -0.068308 -0.172271 -0.762825 0.000507 0.265552 -0.887972 0.612081 0.386392 -0.245479 -0.882299 2.309232 -1.696821 -1.728198 1.398281 -0.110513 2.100125 0.681271 0.149206 0.203438 0.784681 -0.178691 -0.852369 0.704728 1.036429 0.521044 0.471301 -0.920074 1.675288 -1.062853 -1.007203 1.313005 1.065335 -0.523971 0.380467 0.927962 -2.325922 -0.814768 -0.188442 -1.547364 -0.539528 1.318881 -0.694912 0.819282 1.118410 -0.482029 -0.662745 0.550587 1.247499 -1.246039 0.220102 0.829435 0.192904 0.397528 -0.649188 -1.537965 -0.211417 0.285782 1.108147 0.915336 -0.099045 0.863720 0.838732 3.247969 1.893586 0.962548 -0.047369 -0.619346 0.448655 -0.949725 0.970244 -0.177943 -1.135551 -0.875933 -1.598445 -0.573663 -0.684082 -0.146398 0.094639 0.768588 0.056686 -1.562802 -1.866092 -1.677806 1.483653 -0.163450 0.474334 -2.547671 -0.623090 -1.394893 1.345956 -0.220585 -0.278871 -0.355077 
20_02 -0.649097 0.381659 -0.548599 2.275030 0.199061 -1.441355 0.008795 2.673998 -1.663008 -1.292045 0.919280 -0.131873 1.349593 1.520873 1.063276 -0.324073 1.122521 0.914173 1.258533 -0.065840 0.782717 -0.041010 -0.622948 0.017909 0.563934 1.653853 -2.275967 -0.807923 -0.454565 -0.473260 0.320374 -0.330139 -0.921143 0.079349 0.020529 -0.481416 0.270889 -0.872747 0.991504 0.351270 -0.092388 -0.053660 0.247734 0.284903 0.035271 -0.588629 0.287554 0.999244 3.112610 -1.585477 -0.268940 0.160206 -0.047108 0.487143 -0.489258 2.232404 0.656103 -2.591924 0.625443 0.461143 0.928272 -1.241147 1.360254 -0.338417 0.880378 0.633825 -1.574420 0.083515 1.295145 0.272624 -0.870800 -0.084412 0.615131 2.269895 0.832457 -0.554770 0.369748 0.123985 -0.246508 0.347456 -1.685648 1.810457 -0.680038 -0.779183 -1.081038 0.234510 0.541253 1.320076 0.255594 1.359415 0.623707 -0.328038 0.298512 0.181365 -0.413195 0.026430 0.731100 -0.829646 -1.126331 0.923512 -0.503818 -0.468467 -0.410992 -0.750465 1.368964 0.284785 -0.143897 -1.849402 -0.971076 0.852619 1.057287 -1.473979 0.243911 -0.524137 -0.554736 1.700473 1.769922 -0.225585 1.407217 -1.340692 -1.624416 -1.494971 -0.468890 1.357485 0.304131 -0.074922 1.134828 1.269533 0.373124 0.384756 -0.362942 1.363296 0.403116 -0.194731 -0.352214 -1.479638 -0.611990 -0.890804 0.997188 -0.703817 -0.756242 -0.033199 -1.574805 0.455778 -0.793439 -0.341207 1.749679 2.522213 1.118442 0.193664 -0.895951 0.012654 0.590171 1.172151 -0.085834 -0.031180 -0.175374 -0.339468 1.330486 0.325138 0.121175 -0.481645 1.402054 -0.936967 0.716013 0.794742 -2.182831 -0.719558 -0.787798 0.202752 0.378001 -0.838387 0.025932 0.515969 -0.087887 1.654022 -0.974434 0.325338 -0.108262 0.445093 0.935602 -0.330946 -0.391453 -0.908078 1.026086 0.695180 -1.951098 -1.322729 -0.255222 1.008072 -1.564740 -0.662735 0.568660 0.222656 1.479965 0.164770 1.927509 0.871871 0.948133 0.950318 0.794844 -1.315129 0.873433 -1.420214 -0.601287 0.246688 1.708480 -0.806996 -1.211896 0.848855 -1.315698 0.941988 0.218623 -1.681903 -0.077532 0.257491 0.041969 -0.236003 0.132595 1.998839 -1.713455 0.933926 -1.369409 -0.303264 -1.772614 0.794091 -1.869682 -0.477386 0.913854 -1.209933 0.054052 -0.427030 0.324586 -0.766943 1.193480 -0.355247 -0.095623 -0.142354 0.721999 -1.470368 0.961080 1.824306 -0.855437 0.994654 -0.908716 0.817263 -0.147440 -1.018331 0.155806 2.281180 -1.196643 -0.585340 -0.539799 1.012171 0.242110 0.112129 0.398003 0.552047 0.730742 1.012867 -0.196097 -0.250290 -1.228522 -2.755281 0.225556 0.050929 -0.385158 0.244472 -2.639898 0.541730 -0.468919 -1.671342 -0.804496 -0.944443 0.349859 0.730950 -0.786466 0.483869 -0.458180 -0.719339 0.635168 -2.180951 0.169247 -0.500072 -0.688061 -0.408575 0.907125 -0.321871 0.308380 1.025622 -0.541418 -1.639400 -1.004194 -0.517644 0.559875 -0.406874 -0.947172 -1.439137 -0.415066 -0.675340 -0.853326 -0.372733 0.031834 1.290130 1.377061 0.454523 -0.780359 -1.295192 0.902600 -0.006953 -0.704977 -0.237706 -0.523020 0.457375 -1.756189 1.716182 0.475207 -0.847677 -0.329769 -0.871404 1.258880 -0.104908 -0.005561 0.848828 1.220146 0.857856 -0.229152 1.567192 -1.553591 1.189308 -0.805026 -2.272551 -0.456017 -0.285329 0.677524 0.311978 -0.489892 0.205726 1.101410 -0.704896 0.475304 -0.007551 1.470325 -0.180881 -1.789070 -0.376349 0.731802 1.000766 0.171699 1.226301 
210_02 -1.047329 -0.236946 -0.695673 1.213663 -1.576511 -0.034743 0.223653 0.679010 -0.689371 -0.493045 -0.166440 0.201254 1.196751 -0.288377 0.815102 -1.585738 1.060201 -0.150177 0.881346 0.828449 2.253846 1.939991 -0.944551 -0.478535 -1.005140 0.578215 -0.961137 -0.865787 0.032396 0.676429 -0.100644 -0.658338 -1.024010 0.956951 0.393479 1.263735 0.960917 0.790980 -1.182069 -1.144348 -1.773773 -1.794731 0.017218 1.022004 -0.747844 -0.598495 -1.170267 -0.414088 -0.761224 -0.766009 1.853713 0.706868 -0.422886 1.401560 0.314706 1.436484 0.536387 -0.378794 0.351038 0.547836 -0.982014 -0.360380 -1.083109 1.023351 -0.379529 1.008779 1.780081 1.683499 0.713882 1.349651 -2.211355 0.482414 0.354974 0.244228 -0.801954 -1.171794 -0.854313 -0.571610 0.062274 0.591204 -0.280822 -1.084788 -0.724081 -0.574227 -1.583969 1.660809 -0.126153 -0.412399 -0.259861 0.526072 0.363637 -0.961686 0.589155 -0.677891 0.201528 0.749196 0.679218 -0.432455 0.182021 0.414717 0.212405 -0.007046 -0.026311 -1.867032 1.735545 -1.257448 -1.384684 -0.742455 -0.676913 -1.628865 -0.079500 -0.187781 0.733205 -0.897711 0.273296 1.057566 2.724762 -0.310544 0.628541 -1.526531 -0.213724 -1.275783 -0.474746 1.117526 0.280582 1.194050 1.091817 1.460186 0.679806 0.136217 -1.572014 -1.473546 0.119869 -0.509709 0.521045 -0.448137 0.943334 0.404092 -1.057060 -0.304349 -0.730281 -0.377220 0.138528 -0.400722 0.350500 -0.361135 0.034084 0.756567 0.303657 -1.366065 0.045439 -1.930060 0.171407 0.965287 -0.393768 0.266830 1.248095 0.928581 0.609082 1.116867 -0.998055 0.056205 0.286586 0.381675 1.447545 -0.589864 -0.838358 -0.621292 -0.684479 -2.583629 0.254295 -0.654373 -1.290523 -1.373868 -0.614515 1.792204 -0.655125 -0.189247 0.381566 0.038506 -1.552581 -1.668533 0.595777 -0.090573 -0.595033 -0.044908 -1.074350 0.678581 0.770855 1.735413 -1.363870 0.870982 1.063688 0.369076 0.757840 0.846460 0.398225 -0.523277 0.147347 0.414247 1.647327 1.251342 0.936052 0.311079 -1.123614 0.595209 0.292976 0.297112 -1.008927 0.165557 -1.332663 1.015117 0.344347 1.999834 0.829037 0.183330 -0.733113 0.396826 0.614256 -0.242652 1.375846 1.116447 -0.700973 -1.460030 -2.669158 0.016921 -1.819548 -2.132691 0.622079 0.380418 2.005940 -0.147272 0.469573 -0.881995 -0.661295 0.866804 -0.854922 -0.552101 0.977565 -1.305841 -0.157885 -0.286221 0.542042 -0.351405 0.863789 1.741689 0.343261 -0.811927 0.083806 0.011445 -1.415387 -0.883384 -0.676571 2.616464 2.103356 -0.848256 2.835574 -0.469859 0.893943 0.737194 -0.891915 0.180047 1.306997 0.393209 1.763449 1.336256 -1.603185 0.957444 -2.284312 -0.420220 1.036643 -0.233837 0.308150 0.480785 -0.033087 0.926626 -0.402109 0.568566 -1.021148 1.539663 2.022590 -0.315759 1.171979 -0.078131 2.081668 -0.575305 -0.288871 1.166485 -0.164234 1.577799 1.041478 0.251934 -1.290651 -0.724327 -0.996708 -1.544926 0.760090 -1.320584 0.819514 1.464505 0.777701 -1.292467 -0.324172 0.167675 0.093154 -0.006920 -0.982769 -0.112231 0.154471 1.194513 -0.286164 -0.569969 -0.654953 -0.536659 1.972977 0.243915 -0.058472 0.584693 1.519956 3.284163 0.560757 -0.205272 2.548439 -0.569537 -0.210296 -0.851067 0.142682 0.309933 0.409206 -0.164578 -1.673306 0.029426 -1.233560 -0.769984 -0.406093 -0.849019 0.427526 -1.344709 -0.624438 -0.738898 1.095748 1.108236 1.260036 -2.140999 -0.404271 -1.289517 -0.281781 0.475686 -0.278488 0.143804 
20_00 -1.642717 0.155034 1.391966 -0.017908 -0.729729 -1.071856 -0.028696 0.359982 -1.632585 -1.311019 -0.035390 -0.145235 2.421057 0.139696 0.286512 -0.662859 0.170672 -0.006776 -0.660432 0.197626 0.567825 -0.432787 0.784346 -0.816650 1.124530 1.059271 -1.164109 -1.375658 -0.830561 -2.018470 1.213360 -0.358074 -0.532085 -0.277059 -0.411306 -0.123175 -1.570029 -0.251753 0.039192 0.182122 1.561306 -0.807388 -0.801995 0.677115 1.123679 -0.706398 0.395510 0.194621 1.375560 -0.661993 -1.672909 0.584703 -0.008521 -0.363514 0.081792 1.013546 0.534377 -0.810490 1.069628 1.151472 0.940338 -0.769637 -1.635576 -0.253221 0.439460 0.942341 -2.127348 1.464810 0.864943 1.276713 -1.726336 -1.279228 0.026614 1.393676 0.446045 -0.763298 0.981063 0.219757 -2.054962 -0.718232 -1.518841 0.416756 0.140269 -0.657813 0.831633 0.910200 0.693337 0.552550 -0.165335 1.201421 1.260122 -0.865256 -0.886123 -0.076347 0.856143 -0.942805 0.754948 0.175042 -0.111225 -0.375343 0.748452 -0.466467 -0.181822 -1.613787 -0.227676 -1.431291 -0.357164 -0.780286 -1.692439 0.755666 1.254411 -0.390220 -1.891315 -1.910747 0.377975 0.757766 0.883914 -0.546677 0.420203 -0.711028 -1.558183 -0.198554 -0.896143 -0.249935 -0.406897 -1.568961 0.255725 0.003868 -1.041869 1.109915 0.443289 -0.823875 1.485767 0.822466 -0.054511 -0.001833 0.412405 -0.202970 1.714573 -1.615942 -1.556411 1.290255 -1.837165 -0.107809 -1.590137 -1.526780 1.084017 1.243978 0.240873 -0.565879 -2.288548 -0.264994 -0.673534 1.260791 1.217387 1.083858 1.106700 1.088500 1.661224 -0.144054 1.151991 1.114165 -0.212421 -1.777943 1.232315 -0.606191 -0.378035 0.251488 0.135629 -0.086865 -0.324635 -0.624287 1.044112 -0.671178 0.249564 2.007810 -0.669193 1.644049 -0.732893 0.787395 0.879978 0.013873 0.287025 -1.095916 0.240916 -0.857759 -1.362218 -0.455694 -1.759538 1.743597 -0.375025 0.187773 -0.568549 0.426123 -0.365910 -1.108110 1.891361 -0.610452 1.867229 -0.643327 -1.149084 -0.116934 0.271462 -0.162987 -0.582209 -0.688953 -0.969917 0.499301 0.407010 -0.634018 -1.506464 2.196247 -0.164054 -0.987790 -0.953589 -0.297009 0.448492 0.011525 -1.578553 1.149828 0.475674 -0.069813 0.083586 0.426207 -1.502511 1.821169 0.578274 0.079822 1.238456 -0.877376 -0.454010 1.006024 -0.205217 2.055345 1.328895 1.333322 -0.903230 -1.053223 -2.308316 -0.689998 -0.301148 0.762910 1.003925 -0.582348 0.609096 0.439015 0.925797 -0.304280 1.293421 1.778396 -0.134202 0.739841 0.495862 0.607849 -0.351309 -0.771021 -0.886199 0.300438 -1.812447 0.265036 -0.157370 -1.545530 -1.095481 -1.766444 0.236042 -0.072501 0.032769 0.224816 -1.565943 -1.742159 0.007222 -1.767527 -1.632704 -1.130628 1.486494 0.672202 -0.726459 1.507186 0.628328 0.123912 1.282728 -0.107016 1.446824 0.387395 -2.140036 0.000018 -0.340226 -1.346853 0.189319 -0.226279 -0.154863 0.047479 0.116985 -0.328528 0.038763 -0.286343 -2.109074 -1.349470 0.387337 1.167436 0.590540 0.818295 -0.079149 0.525373 1.704123 0.217749 -2.015118 -0.981752 1.416574 1.416539 0.537098 -0.632826 0.879972 0.318735 -0.939971 0.470748 0.924249 1.998340 -1.143166 -0.300463 0.514954 -1.271657 -1.078659 1.489341 -0.010335 0.246168 -0.018046 2.112412 -0.001988 2.150811 -1.075476 0.058666 -0.015199 -0.279511 1.091957 -0.628365 0.428529 -0.426301 1.395825 0.441739 0.967640 0.862134 0.958164 -0.562366 -0.815243 0.290976 0.448078 1.328546 -0.836106 1.434100 
204_00 -0.543209 -0.519901 -0.125240 0.877814 -0.605842 -0.942497 -0.610104 0.418195 -0.972239 -0.284034 -0.130229 -0.685571 1.830905 0.576816 0.173638 0.125608 1.283169 0.480493 0.129059 -0.807477 -0.035803 -1.415504 0.362898 -0.228877 0.223352 1.569736 0.240081 -1.060247 -0.357229 -0.815760 0.690776 -0.149310 -0.893214 -0.165949 0.606874 -0.694569 -0.281124 -0.324993 1.653678 1.022053 1.098605 -0.476122 -0.992651 0.473585 0.823730 -0.100222 1.075537 0.128445 0.245786 -1.200294 -1.119917 -0.157546 0.419075 -0.180339 0.750870 0.816345 0.237112 -0.297981 1.837092 1.092883 2.012761 -1.414418 0.325746 -0.603651 1.156363 0.108170 -1.797602 0.142726 1.110483 0.547105 -1.243064 -0.517193 0.024742 1.391380 -0.442848 0.027031 0.323971 0.411669 0.284579 0.359635 -0.343025 1.032215 -0.217992 -1.493259 -0.258342 -0.275968 -0.378558 -0.348670 1.055677 0.436607 1.495660 0.555817 -0.330784 -0.196553 0.651420 0.503615 0.255415 -0.048499 -1.190095 -0.392294 0.262991 -1.629800 -0.638082 -0.091151 0.976507 -0.898390 -0.028147 -0.133461 -1.717976 1.799961 1.379731 -0.764146 -1.719987 -1.563850 0.953220 0.076117 -0.601658 -0.679629 0.546414 -0.895446 -1.909404 -1.013369 -1.244393 0.229780 -0.122147 -0.776312 0.723900 0.110442 0.329345 1.245904 1.283606 0.871793 1.237485 0.947631 -0.439990 -0.758314 0.526027 -0.142825 1.543672 -0.542828 -0.475055 1.150016 -1.829433 -0.623268 -0.839908 -0.658289 1.278897 1.249852 0.589895 -0.299827 -0.827844 0.853219 0.487813 -0.057787 1.374579 0.599556 0.811704 0.048365 1.803690 -0.554333 1.628720 -0.206145 -0.625389 -0.168605 0.248467 -0.675682 -0.429925 -0.325128 0.579226 -0.022093 0.173004 -0.531624 1.498372 0.424844 -0.054919 0.946489 -1.777316 2.044092 1.072582 0.766395 0.704833 -0.224293 0.499595 -0.004300 1.244144 0.439953 0.278132 0.297313 -1.215208 1.726364 -1.023238 0.095047 -0.412851 -0.968505 0.158124 -0.362709 1.525116 0.534630 1.571869 0.255213 -1.253334 -0.426157 -0.027266 0.528940 -0.011616 1.525512 -0.052540 0.201551 0.490229 -0.810067 -1.649348 0.481092 0.345629 -2.248007 -0.701979 -1.723028 0.604746 -0.080631 -1.976398 1.465925 -0.013118 -0.035820 -1.188390 0.377947 -1.489842 -0.366686 0.785353 0.341661 1.425795 -0.793416 0.426821 0.032767 -0.097789 1.543741 0.805242 1.137477 0.205121 -0.908312 -1.285054 -0.864920 -0.354356 1.988827 0.314397 -0.038134 0.195218 0.305241 0.141596 -0.599340 0.961104 1.371507 -0.025817 1.018466 -0.410881 -0.791290 -0.509314 -0.306138 -0.365319 0.329717 -0.424523 -0.066832 -0.747987 -1.506178 -1.051319 -3.025909 -0.028787 -0.425287 0.213757 -1.094907 -1.888261 -1.508797 0.667567 -1.610384 -1.525661 -2.130766 0.252033 -0.200960 -0.122901 1.160439 0.074766 -1.222265 -0.590549 0.116216 1.226810 0.538702 -1.037840 0.544929 0.580701 -2.083130 -0.403912 -0.161633 0.207912 -0.029561 0.990458 0.491798 0.411916 -0.357633 -1.561858 -1.463677 0.907821 -0.537547 0.051930 0.909008 0.312370 1.145448 1.962835 0.016345 -0.242486 -0.020756 0.640845 -0.158698 0.165652 -1.329282 0.154747 0.855782 -1.390095 1.353245 -0.023776 0.921840 -3.175841 -1.641851 -0.080869 -0.306596 -0.525614 1.699559 -0.373279 1.072250 0.560607 1.671920 -0.217205 0.648486 0.621085 -1.151037 -0.468218 -0.313652 1.992294 -0.841443 -1.038628 0.611290 0.597626 -0.177288 1.694883 0.699411 0.205624 -0.567737 -1.913690 0.313144 0.670908 1.579428 -0.279089 1.549319 
23_00 -1.859908 -0.332107 1.828841 -0.752579 -1.785836 -0.100096 0.450489 0.901236 -0.034876 -1.473016 -0.577438 1.039982 -0.022861 -0.313483 1.497529 -0.316618 0.825654 2.123016 2.032729 2.014811 0.384034 -0.015261 -0.920441 -0.763035 -0.216907 0.968610 0.078203 -2.547039 -0.242294 0.160984 0.185399 -1.644941 -0.032744 0.079500 -1.041876 0.246758 1.346855 0.034479 -1.197648 0.169823 0.133011 -0.653262 0.185637 0.470202 0.505251 0.087076 -1.651703 -1.054071 0.163709 0.231411 0.205114 0.382566 -0.364690 -0.407719 -0.888246 -0.002499 1.431769 0.277273 0.439741 0.291402 -1.311621 -0.343736 -1.312382 0.596927 1.768945 0.861351 0.481508 0.662891 -1.168040 1.422750 0.030699 -0.305347 0.797967 0.309653 -0.526512 -0.141757 0.608155 1.197984 -1.922626 -0.551199 0.415201 -0.879271 0.657598 -1.075137 0.044728 1.249559 0.941142 0.362711 -0.707489 0.702578 0.699226 -0.656942 -0.609474 -0.230479 -0.275005 -0.180920 0.439056 -1.222424 1.487525 0.150420 0.132735 1.970259 -1.443984 -0.077981 0.323524 -1.530875 0.463686 -0.995547 -1.036544 -0.453413 -1.233889 -0.877634 0.125132 -1.740935 0.205375 0.852466 1.652381 0.508518 -1.318364 -1.037849 -0.478271 -1.518449 -0.712063 0.568434 0.753647 0.252154 0.354252 2.200432 0.016213 -0.187644 0.536171 -0.709904 3.033876 -1.131229 0.881797 0.603561 0.684452 1.061972 -1.257994 -0.836439 -1.191111 -1.057203 0.006877 0.228179 0.587924 -0.466973 -0.372788 1.490759 -0.662544 -0.122159 -0.328966 -1.509853 0.519793 -0.646117 -0.438957 0.289374 1.492870 1.204239 1.815994 -0.967125 -0.761065 1.028441 0.745487 0.168549 0.330374 -1.336073 -0.593260 -0.458366 -0.639584 -1.293593 -0.454717 -0.141644 -1.243141 -1.006398 -0.184383 1.809283 -0.361896 -0.741837 -0.207676 0.559420 0.125688 -2.007793 1.207537 0.190499 0.388381 0.232970 -0.712955 -0.273014 0.279616 0.200473 -1.030859 0.276172 -0.107038 0.976304 0.493555 0.288611 0.678415 -1.189896 -0.618043 1.436780 -0.248431 1.229897 0.073282 -0.339904 -0.111398 -1.862100 0.363980 1.674963 1.668352 1.390615 -0.888416 0.039764 -0.060711 0.379903 0.848980 1.255976 -0.526220 1.278257 -0.733651 0.637763 -0.057486 -0.190880 0.990720 -1.131285 -1.936339 1.251190 -1.094300 -0.470500 1.067423 -1.005395 0.224595 0.803288 0.990754 -0.925085 -0.563401 1.270391 -1.024319 -1.756950 -1.967753 -1.415514 -0.368540 0.358067 1.400166 0.331020 0.921143 -0.392470 0.901040 -0.995757 2.138226 0.973327 -0.950025 0.876775 -0.369479 1.007663 0.339827 -2.611279 0.450755 0.353720 -1.561787 -0.985535 -0.624625 -0.412138 -0.635121 0.596498 -0.121122 0.142988 -2.187249 2.939304 -2.590824 -1.347132 -0.054234 -0.130713 -0.267970 1.044447 0.687460 1.262619 0.045682 0.089031 0.442206 0.477397 2.086032 -0.231546 0.274338 1.507665 -0.161377 -0.559652 -0.681434 -1.488576 0.452266 -1.053748 0.396480 0.190252 -0.624447 -0.365278 -0.282881 0.071036 -0.175825 0.957837 0.336555 1.874292 0.095046 0.183026 1.272806 0.925883 0.904505 -0.313159 -2.451483 0.246107 1.241370 -1.174887 0.198652 -0.994265 0.840725 -0.586836 -0.215239 1.201634 -0.474316 1.728505 0.625901 3.050838 0.593733 -0.468685 -0.369636 0.299376 0.535336 -0.724689 -0.911411 0.164459 -0.517014 0.128427 -2.849077 0.783839 0.877551 -1.502277 -0.020314 -0.113326 1.114264 -1.840798 -0.534149 0.182007 0.835898 0.358428 0.523960 -0.001365 0.571552 -2.256991 1.057774 0.956517 1.439793 1.047182 
26_02 -0.073108 0.102948 1.079432 0.637455 -2.125769 0.596731 1.201760 -0.474680 1.088170 -0.875052 -1.752031 1.253223 1.402734 -0.979146 0.241274 -0.535819 1.342674 0.127461 0.312656 -0.365849 0.790424 2.703765 -0.409260 0.551346 -1.216680 0.469429 -0.034500 -0.066534 -0.452591 -0.211835 -0.508352 -0.220811 -0.154662 0.170241 0.767502 1.351900 1.542894 -0.306683 -1.111091 -0.048580 -1.867340 -1.462074 0.187366 0.775916 0.023611 -1.846490 -0.212852 -1.338616 -0.182515 1.124204 1.237459 0.078663 1.063256 0.904967 0.319035 0.823075 0.066682 -0.359233 -0.268893 -0.146521 -0.375574 -0.362085 -0.448509 0.209498 0.821473 1.032067 1.701491 1.359515 0.302983 0.138953 -1.221515 -0.246851 0.063347 -0.601581 -2.279678 -1.390662 -0.375887 -0.214770 -0.362652 0.125600 -0.664618 -1.773327 0.539613 0.604563 -0.257858 0.399588 -0.406617 0.177107 -0.355979 -0.138744 0.934611 -1.232225 -0.858757 0.007679 -0.289662 -0.326943 0.095404 -0.123250 -0.546610 0.180755 0.155138 -0.173246 0.502354 -1.950197 0.311626 -0.886528 -0.305264 -0.265990 -0.992266 0.032015 -0.757408 -0.703446 0.278827 -0.699662 0.649115 1.649463 1.466766 -0.833667 0.631127 -1.301705 -0.464216 0.023988 0.152787 1.646114 -0.757677 0.880886 0.689253 -0.364837 0.004913 0.282871 -1.772705 -0.135843 -0.501173 0.918172 -1.053034 0.538332 0.473830 -0.220569 -0.741800 0.878942 -0.974663 1.260957 0.256833 0.371085 0.794411 0.337269 1.223567 0.669257 -0.775986 -0.703099 0.024810 0.429818 0.005235 -0.405604 -0.472958 0.747029 0.876169 1.237588 1.015946 1.455530 -0.735308 -0.114716 0.310513 1.238929 0.262293 0.113827 -1.024313 0.075227 0.571899 -0.731324 0.130804 -0.243822 -0.111907 -1.673251 -0.077012 1.714014 -0.700887 -1.485812 0.102078 1.721742 0.019336 -0.526258 2.137909 -0.420372 -0.222550 0.407797 -1.403345 -0.679011 1.322686 -1.031118 -1.858489 1.764798 1.065122 1.711586 1.533502 1.587513 0.421637 0.052737 0.063611 0.628042 0.677260 0.771899 0.235667 1.339340 -0.304903 0.310999 -0.130823 0.674055 0.112017 0.236284 -0.311120 0.702354 1.314725 2.293358 1.439053 0.068267 -0.551531 0.145157 -0.502230 -0.681012 -0.300033 -0.245405 -0.788994 -0.876948 -1.353809 1.282483 -1.955772 -2.050170 -0.197011 0.336575 1.031523 0.515431 -0.221255 -0.178038 0.215785 1.191877 -1.335831 0.154982 0.208036 0.267669 -0.434569 -0.835153 -0.436411 0.160035 -0.046644 0.820593 0.380412 -0.159989 -0.903933 0.363620 -0.281148 0.113796 -0.302015 1.338087 1.012074 1.087479 0.404303 -0.123131 -0.347651 -0.183222 -0.788592 0.441282 -0.840903 0.588524 0.700006 0.813251 -1.516477 0.031519 -1.159731 -1.292000 1.088033 -0.330772 0.184610 0.339218 0.719411 0.871890 -0.519631 1.005218 -1.009251 0.211675 1.500657 -0.061093 0.273503 -1.214980 1.015495 -1.019114 -0.359181 0.481577 1.054761 0.662502 -0.501450 0.016335 -1.928752 -0.987564 -0.433718 -1.525506 -0.300788 0.686456 0.154214 0.766794 -0.283738 0.828299 -0.139000 0.116949 0.045096 -1.496758 -0.779187 0.397841 0.280910 0.060983 0.390453 -1.340626 -0.311215 0.438448 -0.182442 0.916707 -0.645146 0.318450 0.419140 2.603069 0.612510 -0.042948 1.746649 -0.259376 0.114515 -1.429335 1.036450 0.092445 -1.136050 -0.194858 -2.076971 -0.090922 0.319208 -1.387153 0.025417 -0.863994 0.099817 -0.634852 -1.554225 -1.290330 0.901468 0.630871 0.898269 -1.825381 -0.519475 -2.012676 1.003456 0.007724 -0.247217 0.934749 
35_00 1.153998 0.045554 -0.411674 0.423498 0.171834 -1.241368 1.835942 0.396292 0.238357 0.353536 -0.646552 2.134140 -0.136098 0.028722 -0.303256 -1.200940 0.324989 0.327974 0.593697 0.931376 0.854384 1.547358 -0.935231 -0.118145 0.311756 0.300572 -1.000744 0.832330 0.256087 1.008809 0.128965 0.265861 -0.265152 -0.616665 -0.255691 0.557303 1.863176 -1.011526 -0.517734 -2.465613 0.151917 -0.824078 1.517983 1.004415 1.506059 1.395455 -0.524881 1.591906 0.988110 -0.386627 0.751142 1.230432 0.377266 -0.847060 -0.344621 -0.361762 -0.873672 -0.187176 0.439933 -0.650829 -0.287486 -0.439278 0.339818 -0.874602 0.190596 1.131814 0.328541 0.208940 -0.390499 0.671608 0.937251 -0.539863 0.650399 -0.581226 -2.719897 0.544368 0.673972 -1.528017 -0.061704 -1.697629 -0.245692 -0.732058 -0.867573 2.756841 1.576483 -0.200446 0.599820 -0.136898 1.975789 -0.319900 -0.586843 -0.384719 1.159706 0.108841 -1.970683 -0.910172 -1.170801 -0.351323 -1.374730 1.321219 -0.630602 2.072437 -0.588683 -0.971276 -0.470944 -0.635426 -0.439921 0.798668 -0.052138 -0.427398 -1.791963 -1.196363 0.530081 1.541038 0.183180 1.033552 0.095820 0.678409 0.980461 -0.041053 -0.179391 -0.111867 -0.094197 0.314226 -2.054352 -0.184474 0.091352 -0.115395 0.089769 0.682433 -1.275993 0.845886 -0.132919 -0.545946 0.298927 -0.211683 1.506118 0.488739 -0.803389 -0.838567 -0.872551 0.304556 1.160480 0.335611 0.748447 -0.353141 0.788380 -0.756471 0.198449 -0.482141 0.686688 -1.743234 0.755835 -0.867060 0.064576 1.383342 1.010353 -0.807467 -0.061689 0.398569 -1.771251 0.469161 0.408833 -0.154771 -0.298082 -0.182637 0.044209 0.222213 -0.149738 -0.413080 0.662483 -0.221766 -0.848213 -1.098091 -0.540650 1.125599 0.720883 0.122532 -0.513674 0.310348 -0.544814 -0.336498 -0.144423 1.656420 -0.833166 0.120765 -0.412013 -0.681901 -0.380344 0.621517 0.898025 -1.048210 -0.954748 0.743689 0.154614 0.198888 0.183791 0.845556 -0.308297 -0.892862 0.301590 -1.034155 -0.010858 0.479315 -0.005028 0.961612 -0.589752 -1.075199 -0.089258 1.538452 -0.961257 -1.267316 0.852746 -0.299263 1.729613 -1.037808 -1.459125 1.863301 -0.331453 -1.526817 0.435818 -0.047415 -0.124123 -0.025588 -1.477392 0.610403 0.918597 0.120102 0.664000 -0.012264 -0.050820 0.825425 -2.121330 0.465810 0.674455 0.449114 -0.744708 1.118622 -1.641877 0.304870 1.158096 -0.839694 0.633901 1.342270 1.555850 0.915577 0.196574 -0.858691 1.664095 -0.850246 -0.736424 1.113157 0.268865 0.808446 1.512183 0.214494 1.630716 -0.784419 -0.342284 -0.197124 1.076704 -1.008044 0.240437 -1.388641 -0.927387 0.184795 -0.437914 1.046216 -0.419011 -0.598508 -0.385739 -0.725686 -0.004388 1.474186 0.554715 0.404685 -0.218958 0.970301 -1.093209 0.224740 0.583078 -0.724562 0.310449 -1.270117 0.174586 -1.514820 1.452614 2.231542 0.149410 1.073973 -1.068823 0.072269 -0.596209 -0.958336 0.798450 -0.675590 0.587516 -0.227972 -0.247325 2.461997 0.030365 -0.368000 0.670473 -0.545724 0.192271 -1.382493 -1.142858 -0.659623 0.745582 -0.109022 1.071758 0.456757 1.176517 -1.183394 0.828074 -0.468207 -1.558888 -1.174212 1.511226 3.124549 0.967907 -0.423815 1.430229 -1.654302 0.138921 -1.067702 1.311165 0.621406 -0.728880 0.621232 0.548854 -0.885565 0.880211 0.575597 1.037875 -0.627054 0.562657 -0.503289 -1.818634 0.058475 0.363427 0.887609 0.431724 -0.245657 0.188695 -0.886428 0.175063 0.572751 -1.757845 -0.010660 
24_02 -0.798186 -0.068140 0.657975 1.934522 -1.733107 0.812094 -0.418415 0.310555 0.636597 -0.709337 -0.151519 2.650043 0.841271 -1.019204 0.907046 -1.609434 1.216118 -1.000829 1.416067 1.160891 1.510265 2.166110 0.496358 0.256458 -1.139542 0.550522 -0.657549 -1.015507 -0.673938 1.528311 0.837629 -0.849299 -0.999953 -0.170701 -0.108819 0.222653 0.052906 -0.910770 -0.038613 -1.606107 -1.196071 -0.816642 1.306407 0.487150 -0.646999 -0.605096 -0.464624 -0.057017 -0.194366 -0.149103 1.132766 0.633696 0.432634 1.278146 0.250808 -0.132103 1.171028 -1.027927 0.391655 0.839088 -0.681688 -0.482801 -0.295441 1.646163 -0.082589 1.407084 1.352207 2.394381 0.255430 0.856871 -1.953541 -0.534666 0.084868 -0.305453 -0.839968 -0.911445 0.311914 -0.612248 -0.698276 1.518507 -0.790383 -0.941918 1.052879 0.307069 -0.910192 0.345427 -1.332648 0.718389 -1.218427 1.242728 1.333565 -1.817505 0.147168 -1.156900 1.540375 1.141450 0.440246 -0.258196 -0.632652 0.482119 0.375730 -0.114895 0.856690 -2.229494 0.412358 -1.322528 0.214069 -0.343764 -1.095134 -1.281301 -0.176198 -0.317180 1.746430 -1.810477 1.212994 0.643366 2.315359 -0.809172 0.327469 -1.074331 -0.563837 -1.062263 -0.039853 2.803396 -0.303534 -0.044113 0.493880 0.226895 0.174736 -0.297998 -1.010442 0.032134 -0.408616 -0.430733 -1.158659 0.391328 1.221083 0.378292 -1.773055 -0.034799 -1.117031 -0.184052 0.885338 -0.301198 0.907068 -0.284605 0.556277 0.850674 -0.030857 -1.594495 -0.136093 -0.484369 -0.428507 1.129084 -0.464929 -0.669096 0.501112 1.272672 0.386349 -1.197359 -1.058686 0.323511 0.567163 0.989144 0.796412 -1.121040 -2.241960 -0.774684 -1.445823 -1.043637 -0.272702 0.489351 0.165665 -1.265576 -1.325554 1.567740 -0.220139 0.184465 1.461909 0.360495 -0.607453 -1.279032 1.736534 0.623278 -0.381921 0.969440 -1.219112 0.239695 1.731417 1.040097 -0.841154 2.069140 1.986603 1.915247 1.496369 0.946666 1.189304 -0.187689 -0.256277 0.828245 0.741376 1.297957 -0.025984 -0.195617 -1.047672 -0.293194 -0.280788 0.619206 0.575492 1.104213 -1.309684 0.257860 1.070814 2.246219 1.454789 0.219667 -0.742145 1.869174 0.734354 -1.035763 -0.435148 -0.383987 0.098722 -1.413183 -2.312114 0.675064 -1.331648 -3.003711 0.737561 -0.411714 2.398250 -1.051969 -0.278200 -0.986765 -0.784104 1.757235 -1.448573 0.008512 0.507905 -0.222908 -0.027583 -1.593684 1.217011 0.008962 -0.238831 0.532347 1.017309 -0.795328 0.370229 0.876900 -1.766873 -0.429520 0.165929 1.905808 0.935433 0.424774 2.948707 0.075155 -0.392614 0.153474 -0.517922 -0.432480 -0.018359 0.328402 0.279789 0.332241 -1.937168 1.178386 -2.756359 -1.540508 -0.049643 0.747310 1.269107 1.044190 -0.768536 0.754901 0.160939 0.736126 -1.590380 -0.192417 0.760799 -1.286682 1.010644 0.176350 1.680596 -0.661277 -0.203365 0.948040 1.251797 0.761615 -0.622445 -0.128412 -0.769014 -1.570052 -0.161872 -1.686286 0.391723 0.645702 -0.922018 1.064812 -0.537794 -0.149075 -0.005853 -0.321225 -0.020456 0.116061 -0.617240 -0.132166 1.054393 -0.741259 -1.046288 -0.596893 0.941810 -0.112705 1.246808 -0.297471 -0.376229 0.069189 2.116333 1.800176 1.501958 -0.503643 1.750762 -1.450443 0.076428 0.299697 0.666206 -0.311417 -0.635425 -0.401761 -0.754066 0.797055 -1.181669 -0.183035 -1.365151 0.286332 1.542330 -2.325908 -2.239504 -1.634452 -0.329601 0.447373 0.150676 -1.304089 -0.255660 -3.059808 0.089666 0.481329 -0.048029 0.096458 
